1318 100
</s> 0.004003 0.004419 -0.003830 -0.003278 0.001367 0.003021 0.000941 0.000211 -0.003604 0.002218 -0.004356 0.001250 -0.000751 -0.000957 -0.003316 -0.001882 0.002579 0.003025 0.002969 0.001597 0.001545 -0.003803 -0.004096 0.004970 0.003801 0.003090 -0.000604 0.004016 -0.000495 0.000735 -0.000149 -0.002983 0.001312 -0.001337 -0.003825 0.004754 0.004379 -0.001095 -0.000226 0.000509 -0.003638 -0.004007 0.004555 0.000063 -0.002582 -0.003042 -0.003076 0.001697 0.000201 0.001331 -0.004214 -0.003808 -0.000130 0.001144 0.002550 -0.003170 0.004080 0.000927 0.001120 -0.000608 0.002986 -0.002288 -0.002097 0.002158 -0.000753 0.001031 0.001805 -0.004089 -0.001983 0.002914 0.004232 0.003932 -0.003047 -0.002108 -0.000909 0.002001 -0.003788 0.002998 0.002788 -0.001599 -0.001552 -0.002238 0.004229 0.003912 -0.001180 0.004215 0.004820 0.001815 0.004983 -0.003111 -0.001532 -0.002107 -0.002907 0.002815 0.001579 0.000425 -0.002194 0.001524 0.003059 0.000194 
of 0.233570 -1.019668 0.442786 0.312766 0.744375 -0.429177 0.501669 0.032145 0.270358 0.291922 0.805388 0.281910 -0.884590 -0.179814 -0.702528 1.341928 -0.613041 0.234413 0.487940 0.755636 0.413056 1.149858 0.857057 -0.617675 -0.286364 -0.263849 -0.344347 0.292794 -0.186163 0.723999 -0.187583 -0.885057 0.412586 0.156953 -0.018431 -0.753980 -0.623618 -0.507830 -0.399119 -0.350455 -0.399761 -0.536126 -0.122289 -0.023872 -0.683093 0.875549 1.182561 -0.464434 -0.643968 -0.348932 1.490232 0.799266 0.377756 0.605473 0.421088 0.274287 0.167331 -0.981471 -0.480385 -1.308279 -0.695809 -1.422108 -0.311106 -0.562748 0.685311 1.080162 0.966640 0.194131 0.176382 0.323335 0.073747 -0.421113 -0.963275 0.489327 0.039757 -0.297314 -0.813602 -0.333657 0.557662 -0.751428 1.126201 -0.061591 -0.440125 -1.339154 0.447042 0.797488 -0.455920 0.864653 -0.315408 -0.516827 0.238220 0.322040 -0.283738 0.812628 -0.421290 0.414762 0.502233 0.706258 0.069176 -0.522761 
and 0.186138 -0.016963 0.158435 -0.247379 -0.169030 0.296061 0.090035 0.215640 -0.210858 -0.028650 -0.160837 0.548992 -0.373043 -0.481801 0.057184 -0.277102 0.305620 0.620186 -0.098076 -0.061085 0.178675 0.013423 0.331957 0.022659 -0.052195 0.059876 -0.114969 0.370552 0.068218 0.089635 0.270567 0.120178 -0.100584 0.400988 -0.092746 0.465696 0.181217 -0.441552 0.096005 -0.588729 -0.061609 0.258226 -0.175754 -0.525723 -0.591833 0.162582 0.472274 0.102749 -0.206161 -0.932090 -0.354727 -0.187638 0.201364 0.262951 -0.121474 0.293820 -0.095388 0.010687 0.226199 -0.402656 0.153261 -0.263513 -0.368335 -0.306258 -0.033378 0.273450 -0.139400 0.059417 0.309859 -0.426813 -0.053842 0.260968 -0.166609 -0.002981 -0.219599 -0.164090 -0.110093 0.089107 -0.623609 -0.003755 0.131795 -0.213820 0.542650 0.041193 0.049903 -0.016087 -0.138433 -0.010552 0.284338 0.150348 0.332427 -0.025527 0.347826 -0.098258 -0.023680 -0.065699 0.066856 0.152465 -0.059847 -0.452930 
in -0.769373 -0.882830 0.985524 0.267304 0.822204 -0.891126 1.517050 -0.037638 0.953137 0.320434 -0.165239 0.374790 -0.975871 -0.486294 -1.364267 1.065225 0.120644 -0.343921 0.547225 0.810021 1.011781 0.504491 1.175890 -0.384914 0.459828 -0.293462 -0.322174 0.497647 0.401533 1.283571 -0.408392 -0.563418 0.157416 0.208175 -0.154824 -1.051628 -0.597513 -0.320498 0.540676 -0.409226 -0.429085 -0.623568 -1.058894 1.016030 -0.172887 0.484760 1.317734 -0.367440 -0.629761 -1.170182 1.847744 1.192119 0.134385 0.183928 -0.886586 -0.507350 -0.448606 -0.791296 -0.766076 -1.469740 0.315445 -1.268539 -0.554565 -1.747446 1.180434 1.876390 0.666496 -0.122230 -0.269653 0.275393 0.065704 0.623681 -1.133118 0.058110 -0.996493 -0.612517 -0.198954 -1.569858 0.123328 -0.845802 0.539747 1.105919 -0.469940 -1.922008 0.580380 0.768584 -0.427459 0.280394 -0.184302 -0.706784 0.729597 0.190601 -0.425093 1.681524 0.118632 1.112337 0.187088 0.757736 0.549588 -1.224475 
Nation -0.160334 -1.093451 1.464378 -0.718800 0.632661 -0.563428 0.687967 0.124423 0.254188 0.780532 -0.154527 0.937537 -1.115358 0.536495 -0.962905 1.153306 -0.332740 -0.623363 0.341189 1.125045 0.619198 0.556643 0.891075 -0.161137 0.296375 -0.725885 0.444821 -0.411344 0.418241 1.033179 -1.284670 -1.075301 0.072805 0.449856 -0.291484 -1.105699 -0.384866 -0.542886 0.599882 0.788971 -1.696995 -0.619317 -1.026744 0.191820 0.421133 -0.180573 1.784752 -0.999311 -0.538053 -0.168750 1.580442 1.910806 0.804795 0.197333 -1.129092 0.097507 0.944972 -0.397054 -0.206664 -1.240263 -0.142508 -0.978822 -0.036037 -1.684474 0.811472 1.630137 1.509636 -0.486668 0.183478 0.421922 -0.035950 -1.273532 0.064774 0.414821 -1.091104 -0.987112 -0.852522 -1.036734 0.531912 -0.693555 -0.462077 0.554118 -0.424601 -1.817472 0.216649 0.461997 -0.108226 0.580112 0.504563 -0.328750 0.444192 -0.214889 0.236253 1.219737 -0.612462 0.428320 1.775404 1.241987 0.235196 -0.581879 
player 0.876171 0.150464 0.281941 0.091335 -0.643376 0.239769 -0.492174 -0.081435 0.295012 -0.039327 0.620181 0.840524 -1.172869 -0.379200 -0.101840 -0.156058 0.645153 0.818264 -0.200291 -0.673989 0.237957 0.856477 0.521514 0.637545 0.004873 0.024749 0.350489 0.446998 0.237473 0.399326 -0.241534 0.151270 0.608152 0.486565 -0.342373 -0.080380 0.165741 -0.542571 -0.064683 -0.772194 -0.191886 0.000487 0.015490 -0.147452 -0.280820 -0.010537 0.509779 -0.482865 -0.894197 -1.513320 -0.689260 0.041752 -0.005399 -0.016433 -0.265258 -0.342464 0.168218 -0.686751 0.317385 -0.775317 0.164545 0.062962 -0.749608 -0.310958 0.418582 0.544207 -0.154288 -0.003576 0.576813 -0.689950 -0.367047 1.216030 -0.602804 -0.422054 -0.482869 -0.241232 0.090526 -0.032013 -0.192257 0.230247 0.449600 -0.212028 0.138933 0.319886 -0.161673 0.215324 -0.234666 0.663048 0.510296 0.225931 0.124557 -0.468312 -0.343082 -0.267561 -0.320007 -0.546501 0.623957 0.322456 -0.878874 -1.485068 
Operator -0.304561 -0.404119 0.343698 -0.698912 0.235051 0.273814 0.725253 0.457972 -0.494978 -0.102198 -0.918428 0.843552 -0.288624 -0.504407 -0.150409 -0.484588 0.296495 0.202003 0.039358 0.885909 0.486389 -0.572308 0.555189 -0.624172 0.076381 -0.340383 -0.521359 0.631067 -0.116032 0.253463 0.577268 -0.093629 -0.673555 0.521706 0.374984 0.819218 0.127247 -1.015718 0.622957 -0.472450 -0.086938 0.177903 -0.579766 -1.019650 -0.870142 0.577412 0.846068 0.388425 0.125769 -1.120486 0.321223 -0.055661 0.720397 0.710042 -0.452670 1.021160 0.050843 0.440389 -0.087168 -0.750877 0.253545 -0.982047 -0.584276 -1.180245 0.127284 0.598729 -0.142510 -0.052627 0.301836 -0.355553 -0.153112 -0.342221 0.070929 0.286758 -0.434217 -0.467637 -0.234113 0.113245 -1.361721 -0.033455 0.086108 0.059018 1.045595 -0.397900 0.446398 0.053563 -0.080534 -0.601820 0.333245 -0.075456 0.784961 0.376251 1.141696 0.244360 0.098616 0.145964 0.149024 0.476443 0.583331 0.068862 
operator 1.085441 0.298947 0.424447 0.020499 -0.804905 0.246755 -0.549099 -0.166724 0.270765 -0.028696 0.699416 1.040562 -1.279856 -0.436218 -0.098639 -0.265950 0.807751 1.046801 -0.240838 -0.897048 0.290019 0.983139 0.630639 0.794791 -0.026008 0.047280 0.439209 0.518047 0.320033 0.444533 -0.265591 0.260283 0.628341 0.587667 -0.273464 0.023249 0.241767 -0.648379 -0.098241 -0.965044 -0.244802 0.054818 -0.070605 -0.270110 -0.403032 0.015651 0.662852 -0.450696 -1.008493 -1.884671 -0.873752 0.000301 -0.076888 0.100916 -0.284760 -0.308101 0.114032 -0.788178 0.449684 -0.935874 0.258864 0.106048 -0.859241 -0.383852 0.451245 0.692115 -0.191661 0.024851 0.714449 -0.897709 -0.485628 1.466115 -0.714436 -0.518457 -0.562716 -0.314627 0.078809 -0.035750 -0.279746 0.255165 0.400288 -0.337706 0.352007 0.334928 -0.292445 0.190941 -0.218766 0.785234 0.599023 0.292707 0.142099 -0.541963 -0.368263 -0.335926 -0.407452 -0.676993 0.764752 0.321036 -1.019829 -1.667650 
First -0.083811 -1.012610 1.345571 -0.671104 0.525191 -0.473361 0.610940 0.084230 0.281900 0.592352 -0.110347 0.967948 -1.024378 0.432120 -0.898081 0.952646 -0.268760 -0.506108 0.236852 1.076609 0.579740 0.489899 0.794013 -0.169034 0.232741 -0.645410 0.362939 -0.313314 0.278677 0.982888 -1.077354 -0.982391 0.162420 0.387402 -0.122737 -0.914416 -0.351459 -0.622022 0.471571 0.644832 -1.432376 -0.614866 -0.987559 0.075907 0.256256 -0.033163 1.611646 -0.843873 -0.526575 -0.273603 1.388427 1.674323 0.724452 0.195446 -1.035174 0.165315 0.860291 -0.406042 -0.207966 -1.144975 -0.163001 -0.912923 -0.103970 -1.613061 0.843950 1.428728 1.321078 -0.392893 0.199564 0.232640 -0.136283 -1.020430 0.018001 0.316058 -0.949223 -0.940265 -0.743960 -0.837621 0.398338 -0.603049 -0.299863 0.493456 -0.267709 -1.544592 0.251302 0.382640 -0.137529 0.509209 0.381188 -0.340358 0.379430 -0.198953 0.231361 1.055885 -0.549975 0.289653 1.673620 1.094379 0.191233 -0.522852 
the 0.196850 -0.833565 0.640020 0.390643 0.449558 -0.646825 0.526501 -0.169552 0.652971 0.092987 0.795712 0.284642 -0.996423 -0.061480 -0.838127 1.112355 -0.285626 0.044573 0.364349 0.516877 0.522063 1.152114 0.856156 -0.321485 -0.032578 -0.263429 -0.225666 0.328743 -0.136556 0.857431 -0.317986 -0.722252 0.529741 0.134128 0.001615 -0.948878 -0.641624 -0.366599 -0.307007 -0.394686 -0.301740 -0.713138 -0.176610 0.394247 -0.343072 0.791216 0.928345 -0.534303 -0.707728 -0.591604 1.280880 0.777764 0.260529 0.344731 0.126717 -0.188019 0.078268 -1.083164 -0.609020 -1.273999 -0.382892 -1.249431 -0.446870 -0.918843 0.967187 1.168654 0.825782 0.132021 0.112995 0.120501 -0.255780 0.200345 -1.142350 0.259439 -0.195218 -0.370406 -0.520990 -0.603604 0.469899 -0.608454 1.031937 0.348140 -0.525745 -1.150829 0.490685 0.858988 -0.430467 0.812762 -0.230015 -0.488256 0.146831 0.215136 -0.532124 0.930690 -0.279760 0.275298 0.552215 0.646012 -0.092414 -0.877620 
Officer -0.329437 -1.446058 0.258882 -0.471721 0.493268 0.866258 1.103199 0.770532 -0.713728 -0.389042 -0.463746 1.199677 -0.445147 -1.055103 0.074823 -0.122620 0.311539 0.768324 -0.216882 1.689240 0.683594 -0.304306 0.771086 -1.136297 -0.023401 0.388375 -0.909419 0.883155 -0.425002 0.675836 0.717148 -0.240298 -0.829509 0.437200 0.480415 0.804427 0.068341 -1.018895 0.621350 -0.083921 -0.512945 0.352448 -0.576104 -1.155139 -1.484897 0.694737 0.582016 0.542766 -0.354276 -0.949586 0.034461 -0.362452 0.599333 0.369803 -0.815199 0.721713 0.561303 0.186937 -0.249040 -0.636865 -0.110829 -1.415932 -0.680308 -1.488660 -0.098913 0.389425 0.217489 -0.599878 0.419659 -0.920885 0.016644 -0.904191 -0.345542 0.271547 -1.083402 -0.306637 -1.094554 0.653147 -1.814338 -0.906257 1.124708 0.232257 1.005723 -0.183922 0.644285 0.356095 -0.448640 -0.899491 0.352822 0.188938 1.286582 0.638462 1.385954 0.984069 -0.279903 0.110209 -0.788668 1.369758 0.636385 -0.803193 
Chief -0.353087 -1.553010 0.124357 -0.348838 0.552876 1.028716 1.098253 0.871254 -0.761668 -0.479115 -0.467854 1.157786 -0.288244 -1.201250 0.223711 -0.115809 0.284677 0.831375 -0.293629 1.766121 0.587518 -0.351677 0.666280 -1.248803 -0.073674 0.621503 -1.000410 0.893955 -0.497945 0.543319 0.842300 -0.190856 -0.913052 0.394696 0.399997 0.862010 0.076769 -0.895330 0.585996 -0.061538 -0.477239 0.493681 -0.507814 -1.158144 -1.568593 0.616842 0.350621 0.566500 -0.275828 -0.785528 -0.176826 -0.562940 0.549888 0.188825 -0.809486 0.681203 0.653819 0.241932 -0.214463 -0.382099 -0.154195 -1.354441 -0.577925 -1.306181 -0.330461 0.150645 0.200452 -0.711785 0.362251 -0.948425 0.146215 -1.112967 -0.393909 0.268120 -1.065175 -0.186086 -1.217022 0.823186 -1.923715 -1.041819 1.251930 0.215717 1.018072 0.029450 0.655239 0.329986 -0.412265 -1.062613 0.330584 0.323238 1.382474 0.638786 1.403527 1.013440 -0.264173 0.126054 -1.118252 1.389711 0.668764 -0.831125 
Manager -0.465471 -0.788871 0.317903 -0.804592 0.496107 0.476560 1.037809 0.612991 -0.770065 -0.090203 -0.886707 0.929223 -0.245433 -0.673521 -0.129309 -0.321754 0.231335 0.338258 0.106680 1.259669 0.640710 -0.624582 0.738917 -1.010903 0.015618 -0.203654 -0.793238 0.724406 -0.319993 0.453472 0.676069 -0.304853 -0.726720 0.347669 0.532233 0.942004 0.156252 -1.138377 0.620872 -0.254590 -0.299401 0.174166 -0.698687 -1.331125 -1.280717 0.797028 1.040317 0.659122 -0.016933 -1.048932 0.500462 -0.049137 0.813571 0.924679 -0.536243 1.199107 0.036511 0.409075 -0.230498 -0.768614 0.018141 -1.211694 -0.570428 -1.388390 0.176513 0.636237 -0.022741 -0.076324 0.343656 -0.439319 -0.030471 -0.664340 0.067017 0.389411 -0.594350 -0.508419 -0.453965 0.239371 -1.444759 -0.352688 0.412379 0.081856 1.171329 -0.695644 0.514318 0.093773 -0.283062 -0.725020 0.225675 -0.125567 0.857989 0.575392 1.342656 0.597130 0.025743 0.265941 -0.139895 0.726715 0.771426 0.126332 
Machine -0.411601 -0.225756 0.218113 -0.680044 0.291000 0.236221 0.651255 0.417192 -0.538565 -0.062853 -1.095186 0.581056 -0.052888 -0.361587 -0.104243 -0.523082 0.100712 -0.034190 0.059065 0.794476 0.335133 -0.743181 0.379416 -0.633210 0.044788 -0.384346 -0.479994 0.381457 -0.130286 0.007274 0.600948 0.001090 -0.727379 0.446893 0.334187 0.838553 0.098449 -0.804662 0.535888 -0.396218 0.017855 0.218675 -0.463710 -0.939834 -0.710764 0.470443 0.695090 0.495145 0.327254 -0.795840 0.321266 -0.093217 0.687726 0.638485 -0.286371 1.083389 -0.075160 0.583128 -0.072413 -0.497880 0.233126 -0.822174 -0.318371 -0.961274 0.011323 0.441199 -0.139059 0.076389 0.205292 -0.197152 -0.035036 -0.504455 0.275120 0.386538 -0.192453 -0.374352 -0.134644 0.132628 -1.192694 0.096598 -0.196816 0.051239 0.957280 -0.352160 0.406667 -0.047910 -0.008343 -0.617309 0.252402 -0.093071 0.656347 0.440291 1.143510 0.162842 0.255817 0.228315 0.133879 0.228251 0.691554 0.441139 
machine 0.957810 0.256451 0.422802 0.044263 -0.689640 0.196146 -0.488882 -0.164188 0.256467 -0.058968 0.606320 0.960990 -1.236774 -0.437196 -0.158698 -0.234482 0.720754 0.949638 -0.239271 -0.850798 0.292685 0.933508 0.601896 0.756059 0.010217 0.091014 0.390240 0.480541 0.278896 0.455483 -0.256368 0.269395 0.611914 0.564902 -0.303927 -0.048707 0.227846 -0.585588 -0.158882 -0.925142 -0.248570 0.021660 -0.076020 -0.231739 -0.430934 0.046041 0.623699 -0.449623 -0.927025 -1.790371 -0.821307 0.031671 -0.071645 0.078884 -0.272034 -0.288072 0.121624 -0.751390 0.379014 -0.891437 0.252184 0.062756 -0.819148 -0.406181 0.425299 0.678397 -0.165651 0.033997 0.680006 -0.855054 -0.458828 1.392529 -0.730275 -0.465956 -0.555319 -0.304910 0.066699 -0.022909 -0.264901 0.228709 0.413069 -0.257337 0.301906 0.290508 -0.222177 0.213295 -0.222656 0.746584 0.555995 0.297824 0.165168 -0.514266 -0.362623 -0.258299 -0.358171 -0.607179 0.723565 0.315716 -0.968300 -1.604178 
American -0.330700 -0.618131 0.785669 -0.270318 0.463880 -0.569107 0.614556 0.065587 0.397104 0.379037 -0.071605 0.310476 -0.586811 0.278084 -0.779035 0.795633 -0.366896 -0.479476 0.251859 0.654533 0.458768 0.321838 0.420030 -0.087544 0.249766 -0.315276 0.115144 -0.172865 0.273250 0.713270 -0.712376 -0.592588 0.090715 0.101326 -0.173017 -0.835688 -0.355094 -0.170008 0.266996 0.432656 -0.775526 -0.469968 -0.632619 0.388074 0.280119 0.009184 0.971215 -0.554261 -0.267610 0.015281 1.181927 1.182280 0.402588 -0.039527 -0.580031 -0.110386 0.315832 -0.382321 -0.289822 -0.695192 -0.052887 -0.686997 -0.022346 -0.981205 0.544063 0.926280 0.807475 -0.231211 -0.130617 0.378376 0.002132 -0.527878 -0.159723 0.213897 -0.589017 -0.554503 -0.355173 -0.812603 0.433532 -0.458952 -0.179068 0.522873 -0.390037 -1.203882 0.262423 0.304185 -0.115998 0.309097 0.086687 -0.317869 0.178798 -0.022638 -0.011491 0.881508 -0.247821 0.435173 0.826183 0.625469 0.233700 -0.320146 
Technician -0.447377 -0.540065 0.186299 -0.671139 0.441445 0.423889 0.819520 0.575550 -0.643096 -0.119451 -0.836567 0.664994 0.012776 -0.590022 -0.048947 -0.410112 0.202462 0.253997 0.061668 0.998638 0.392313 -0.691040 0.410965 -0.819314 0.008226 -0.115197 -0.665474 0.603654 -0.282038 0.192546 0.663756 -0.183813 -0.756479 0.311245 0.359526 0.904827 0.154991 -0.824296 0.536539 -0.240465 -0.174947 0.220346 -0.521220 -1.051622 -1.003497 0.556022 0.639426 0.511290 0.132134 -0.730392 0.280869 -0.166169 0.651522 0.707161 -0.414969 1.022453 0.048891 0.519002 -0.168291 -0.402473 0.126814 -0.911232 -0.397986 -0.934480 -0.047143 0.280861 -0.110941 -0.073393 0.181046 -0.301250 0.029975 -0.681632 0.162271 0.310877 -0.410877 -0.295777 -0.362703 0.223862 -1.303110 -0.291961 0.198363 0.002731 1.021084 -0.406020 0.426768 0.006443 -0.090364 -0.787458 0.186792 -0.003874 0.692845 0.439570 1.155774 0.409472 0.073451 0.247191 -0.274539 0.440276 0.724981 0.235445 
technician 1.054289 0.143090 0.262404 0.111372 -0.802397 0.137679 -0.547930 -0.077300 0.341219 0.062173 0.832096 0.806048 -1.147358 -0.358138 0.049058 -0.021000 0.568052 0.988603 -0.085421 -0.634805 0.244711 0.957967 0.542060 0.622291 -0.162829 -0.027945 0.365380 0.508434 0.390018 0.396286 -0.270051 0.043884 0.577065 0.468003 -0.202010 -0.066873 0.132947 -0.604811 -0.038937 -0.835872 -0.051908 0.052944 -0.025566 -0.142480 -0.252122 -0.058709 0.593007 -0.469277 -0.927581 -1.471365 -0.486387 0.030275 -0.065187 0.070346 -0.104934 -0.347365 0.104451 -0.679001 0.498012 -0.945258 0.148913 0.053041 -0.714997 -0.133983 0.393227 0.650653 -0.158301 0.064406 0.555493 -0.586719 -0.350417 1.212541 -0.537405 -0.413550 -0.282368 -0.186123 0.076981 -0.064793 -0.151352 0.242818 0.484842 -0.392922 0.105099 0.280947 -0.325103 0.149892 -0.251561 0.749330 0.358274 0.045587 0.162266 -0.465307 -0.343754 -0.455659 -0.378185 -0.442941 0.705113 0.326663 -0.785109 -1.422848 
officer 0.772336 -0.219352 -0.234015 0.169762 -0.457928 0.569175 -0.526466 0.236607 0.185742 -0.032191 0.692110 0.801657 -1.053843 -0.724817 0.223045 -0.009270 0.410276 1.017129 -0.091636 -0.251099 0.136877 0.847313 0.462288 0.287885 -0.289340 0.155965 0.188465 0.554072 0.291343 0.170315 0.110804 0.047160 0.545729 0.508820 -0.317730 0.070160 0.149835 -0.679524 0.028039 -0.729166 0.051577 0.351476 0.086793 -0.410881 -0.542949 -0.028386 0.433281 -0.299733 -0.879467 -1.222431 -0.694243 -0.225195 -0.093865 -0.138891 -0.114004 -0.135463 0.363522 -0.466817 0.514195 -0.732780 -0.144942 -0.008070 -0.535608 0.084682 0.036065 0.189309 -0.293842 -0.085646 0.491728 -0.441163 0.036961 0.722427 -0.427793 -0.385710 -0.306139 0.005729 -0.017396 0.465206 -0.377790 0.066926 0.853128 -0.475229 0.117742 0.516475 -0.198498 0.068189 -0.318098 0.446169 0.375971 0.094885 0.518235 -0.386800 -0.068413 -0.456067 -0.288394 -0.336839 0.200626 0.487035 -0.685378 -1.220392 
worker 0.821169 0.005471 0.220587 0.043566 -0.607939 0.149199 -0.380765 -0.044717 0.216853 0.013716 0.631095 0.760328 -1.137623 -0.361654 -0.062758 -0.128424 0.561585 0.846001 -0.064166 -0.437926 0.369727 0.831934 0.684707 0.497459 -0.062024 -0.039697 0.219058 0.494635 0.262255 0.563125 -0.267530 0.087076 0.428507 0.469592 -0.139479 -0.004306 0.154064 -0.742967 -0.040534 -0.729945 -0.177019 0.067213 -0.083484 -0.289813 -0.416670 0.158434 0.567454 -0.314068 -0.870898 -1.432691 -0.334910 0.022079 0.001981 0.142860 -0.159291 -0.202546 0.180764 -0.582921 0.396349 -0.974592 0.122426 -0.162919 -0.771232 -0.296292 0.396854 0.704893 -0.122928 -0.028509 0.543733 -0.639550 -0.423323 1.005177 -0.472299 -0.408589 -0.393309 -0.205719 0.087895 0.121594 -0.306611 0.211287 0.549551 -0.297539 0.263584 0.193279 -0.188119 0.217117 -0.257671 0.646834 0.380811 0.018658 0.364990 -0.345143 -0.137709 -0.284841 -0.417071 -0.460223 0.597959 0.515707 -0.680905 -1.333560 
Worker -0.318657 -0.465675 0.237492 -0.590360 0.297117 0.310151 0.690558 0.435227 -0.495349 -0.129717 -0.701724 0.671815 -0.160103 -0.510568 -0.109979 -0.354566 0.223875 0.210779 0.045381 0.847715 0.411617 -0.501237 0.472664 -0.654222 0.037536 -0.177033 -0.503916 0.560523 -0.179816 0.226795 0.501214 -0.164715 -0.557011 0.337163 0.356942 0.728291 0.088591 -0.821581 0.494024 -0.302427 -0.119211 0.171906 -0.479647 -0.908892 -0.824217 0.520363 0.681137 0.413386 0.063626 -0.839452 0.259120 -0.082492 0.578620 0.624020 -0.411794 0.849475 0.055307 0.372651 -0.137253 -0.550012 0.116379 -0.824075 -0.421398 -0.989749 0.098487 0.440149 -0.083459 -0.074127 0.255720 -0.337837 -0.074008 -0.387545 0.058193 0.255083 -0.413565 -0.372169 -0.301059 0.150445 -1.155918 -0.204083 0.187964 0.052782 0.866500 -0.370845 0.371303 0.034535 -0.153329 -0.584516 0.222286 -0.064983 0.658587 0.386090 0.982295 0.327115 0.052250 0.168881 -0.062562 0.458025 0.538397 0.083010 
Assistant -0.428409 -0.870856 -0.066773 -0.789314 0.770980 0.550351 0.908034 0.646929 -1.078801 0.149186 -0.413398 0.570702 -0.029039 -0.510627 0.055754 -0.121789 -0.037879 0.329029 0.195847 1.353003 0.587693 -0.600610 0.647264 -1.144356 -0.152231 -0.134695 -0.853424 0.393211 -0.612058 0.299777 0.719056 -0.460079 -0.574798 -0.086109 0.663472 0.959477 0.246737 -0.882329 0.299181 0.225147 -0.407354 0.086655 -0.589578 -1.301943 -1.453420 0.783607 0.823630 0.887807 -0.222673 -0.353967 0.501377 0.010593 0.715243 1.055735 -0.197707 1.300448 0.017257 0.398257 -0.260701 -0.615253 -0.531596 -0.851883 -0.340397 -0.972505 0.116381 0.261584 -0.020351 0.192401 0.392758 -0.148229 0.264438 -1.024679 0.377243 0.495700 -0.450183 -0.190042 -0.450784 0.477777 -0.890014 -0.503570 0.433320 -0.123978 0.957127 -0.824388 0.212285 0.027885 -0.435342 -0.682609 -0.035270 -0.241069 0.426577 0.625009 1.260374 0.657384 -0.027172 0.270784 -0.276511 0.716627 0.769005 0.546505 
minister 0.271554 -0.457551 0.193911 -0.190421 0.154129 0.178145 0.252391 0.186704 -0.222006 0.025265 0.177961 0.665230 -0.564938 -0.413696 -0.129249 0.113895 0.154018 0.508819 0.164194 0.473787 0.366760 0.286491 0.656844 -0.414116 -0.147959 -0.211119 -0.254056 0.549749 -0.088497 0.453290 0.181815 -0.292385 -0.102570 0.313114 0.270708 0.262123 -0.021220 -0.835418 0.158072 -0.406495 -0.156048 0.005261 -0.237326 -0.643589 -0.763391 0.514370 0.737957 0.054514 -0.425617 -0.904302 0.460717 0.061282 0.324984 0.626437 -0.057018 0.500929 0.141959 -0.195975 -0.003627 -0.865541 -0.071218 -0.732094 -0.576048 -0.521130 0.324997 0.659190 0.137196 -0.004360 0.380916 -0.284384 -0.149681 -0.037643 -0.267077 0.067059 -0.213723 -0.225230 -0.329341 0.171070 -0.528531 -0.175404 0.634304 -0.250890 0.460936 -0.378897 0.132205 0.264845 -0.246570 0.121390 0.029260 -0.167762 0.506383 0.198649 0.423852 0.145820 -0.283093 0.018874 0.198874 0.554242 0.113166 -0.402866 
Clerk -0.457864 -0.567872 0.205919 -0.718293 0.360039 0.380492 0.835292 0.561620 -0.644612 -0.075062 -0.850545 0.698687 -0.119621 -0.550170 -0.052911 -0.390113 0.189941 0.204266 0.060492 1.035069 0.495203 -0.649427 0.519048 -0.782835 0.022401 -0.156012 -0.624000 0.525865 -0.233595 0.293042 0.565414 -0.175414 -0.679161 0.290392 0.367891 0.843396 0.160693 -0.891694 0.522381 -0.196355 -0.217602 0.210731 -0.576797 -1.053844 -0.980691 0.573596 0.746342 0.555916 0.039360 -0.762561 0.269415 -0.088860 0.677207 0.674594 -0.475330 0.979245 0.026732 0.478034 -0.137656 -0.497002 0.044906 -0.877970 -0.400001 -1.094527 0.034905 0.414020 -0.099961 -0.025325 0.233602 -0.341373 -0.003362 -0.605645 0.210616 0.314259 -0.483273 -0.371763 -0.285780 0.213060 -1.250136 -0.218572 0.166646 0.106265 0.965572 -0.434428 0.417898 0.011829 -0.151729 -0.710828 0.220699 -0.098588 0.715149 0.447182 1.175745 0.413673 0.101748 0.231533 -0.166445 0.540342 0.662123 0.173030 
manager 0.901976 -0.085882 0.086752 0.101560 -0.620636 0.226492 -0.482375 0.038342 0.203078 0.032965 0.802715 0.798615 -1.119482 -0.483335 0.080139 -0.010840 0.468190 1.014426 -0.033555 -0.397600 0.264684 0.929865 0.645724 0.409502 -0.208608 -0.019599 0.219510 0.582281 0.337097 0.474020 -0.123389 0.002636 0.495068 0.532619 -0.156024 0.023987 0.132950 -0.790804 -0.042701 -0.790592 -0.031751 0.156799 -0.006691 -0.335555 -0.456858 0.133007 0.573823 -0.337247 -0.908105 -1.382800 -0.334945 -0.068456 -0.057239 0.117955 -0.029656 -0.160249 0.190598 -0.569862 0.479812 -1.029271 0.001646 -0.191291 -0.731237 -0.082923 0.327515 0.627217 -0.140490 -0.006293 0.548059 -0.564468 -0.293939 0.959934 -0.484938 -0.377343 -0.257591 -0.113573 0.012237 0.226246 -0.277858 0.147333 0.687603 -0.468758 0.181831 0.276595 -0.202994 0.163294 -0.327251 0.691989 0.311817 -0.037411 0.412433 -0.332770 -0.115711 -0.449897 -0.422666 -0.396841 0.522500 0.523270 -0.385882 -1.308641 
repairer 0.937270 0.189775 0.402230 -0.023693 -0.722322 0.133191 -0.404803 -0.113742 0.219653 -0.062897 0.618595 0.914276 -1.056989 -0.323053 -0.066390 -0.197593 0.688733 0.883997 -0.177734 -0.602060 0.275641 0.781734 0.521026 0.603082 -0.039907 -0.012575 0.346609 0.543179 0.260736 0.427445 -0.228300 0.088179 0.523001 0.484953 -0.123633 0.053037 0.195458 -0.630345 -0.003749 -0.766719 -0.150539 -0.000484 -0.093115 -0.251330 -0.278733 0.027754 0.573391 -0.414226 -0.823047 -1.580355 -0.586738 0.020522 0.022334 0.125291 -0.290415 -0.265847 0.087536 -0.656949 0.342369 -0.879273 0.247340 0.016906 -0.825048 -0.425296 0.475255 0.642076 -0.152613 0.020479 0.574584 -0.739654 -0.472437 1.264964 -0.559577 -0.408699 -0.471430 -0.303681 0.064009 -0.067129 -0.306422 0.249295 0.394227 -0.234453 0.289449 0.267817 -0.218969 0.165479 -0.221597 0.604029 0.477759 0.154586 0.112447 -0.398221 -0.228517 -0.317463 -0.356294 -0.523388 0.694049 0.335855 -0.774162 -1.395293 
Repairer -0.282522 -0.395835 0.250319 -0.580060 0.248430 0.243500 0.651858 0.431524 -0.441145 -0.091720 -0.670291 0.651257 -0.196619 -0.458981 -0.109887 -0.352873 0.211749 0.248448 0.062130 0.768290 0.408508 -0.455554 0.455575 -0.555109 0.026814 -0.223542 -0.489165 0.530151 -0.117036 0.255961 0.477108 -0.140791 -0.540418 0.384431 0.278873 0.699336 0.132281 -0.830993 0.432469 -0.324894 -0.126048 0.125244 -0.472228 -0.877722 -0.815153 0.502621 0.709549 0.346909 0.028232 -0.857191 0.264244 -0.042300 0.578480 0.599021 -0.346234 0.829814 0.012658 0.325526 -0.086807 -0.582390 0.144127 -0.830164 -0.478444 -0.921495 0.083465 0.427149 -0.110406 -0.014913 0.242187 -0.298258 -0.084512 -0.357109 0.058967 0.241289 -0.343662 -0.343131 -0.206900 0.099134 -1.073073 -0.119572 0.168628 0.016450 0.868395 -0.378613 0.352649 0.044252 -0.112619 -0.512026 0.207293 -0.060079 0.593407 0.285374 0.943983 0.277996 0.055132 0.134461 0.033095 0.430086 0.495909 0.024240 
chief 1.071695 -0.823247 -0.632809 0.392605 -0.282876 0.746792 -0.698376 0.497178 0.550719 0.059572 1.387785 1.176964 -1.831639 -1.053581 0.155430 0.545821 0.226241 1.220567 0.293585 0.325678 0.294550 1.582604 0.774735 0.048247 -0.606232 -0.106567 0.251606 0.945807 0.511463 0.379380 0.139061 -0.496558 1.080586 0.628298 -0.366325 -0.352796 -0.088319 -1.333962 0.252673 -0.915702 0.206030 0.349561 0.089561 -0.554840 -0.747224 0.071453 0.958852 -0.652726 -1.500344 -1.593242 -0.224620 0.039351 -0.039662 -0.194848 -0.124844 -0.047054 0.894678 -0.870434 0.619122 -1.557901 -0.613418 -0.351169 -0.674999 0.063364 0.288131 0.348610 -0.371701 -0.161609 0.663027 -0.021322 0.332066 0.697657 -0.616519 -0.454411 -0.391181 -0.046383 -0.044132 0.681892 -0.283190 -0.055079 1.776200 -0.701827 -0.208130 0.352212 -0.269945 0.248178 -0.609049 0.733075 0.283095 -0.353766 0.979202 -0.516727 -0.152178 -0.615855 -0.385131 -0.207284 0.491652 1.019822 -0.832576 -1.522523 
Minister 0.441850 -0.926227 0.372030 0.115295 1.684311 -0.035694 0.719795 0.010980 -0.562802 0.286061 0.684027 0.526523 -0.071279 -0.228297 -0.597192 1.464457 -0.699459 0.291436 0.719038 0.853692 0.094798 0.787997 0.865861 -1.486472 -0.586215 -0.715409 -0.643926 0.483289 -0.853983 0.287231 0.572214 -1.183764 -0.251997 -0.032752 0.761202 -0.041043 -0.685994 -0.588822 -0.323591 -0.253569 -0.167968 -0.761274 0.093919 -0.794164 -1.481626 1.251335 1.199213 0.029645 -0.247257 -0.355554 2.148954 0.497863 0.443404 1.788758 0.990436 1.470032 -0.022743 -0.823689 -0.944168 -0.856987 -0.595999 -1.550897 -0.450698 -0.157019 0.595592 0.974992 1.045955 0.327477 0.290023 0.490126 0.328049 -1.031931 -0.986208 0.706809 0.475849 -0.227789 -1.334256 -0.158169 0.418595 -0.842623 1.366206 -0.758913 0.339446 -1.763493 0.268462 0.906841 -0.222503 0.636597 -0.937511 -0.226550 -0.026529 0.962734 0.003862 0.952178 -0.592684 0.519177 0.071617 0.294729 0.763891 0.548893 
Indians -0.172323 -0.811013 0.836012 0.048462 0.723269 -0.600341 0.789343 0.030199 0.471518 0.415073 0.227970 0.297259 -0.813599 0.052538 -0.883630 1.204192 -0.276253 -0.256857 0.415164 0.706495 0.514843 0.683707 0.825741 -0.294966 0.123351 -0.347532 0.043842 0.012133 0.154632 0.773027 -0.545584 -0.766042 0.259839 0.147601 -0.290939 -0.960771 -0.524885 -0.210315 0.119006 0.001529 -0.773716 -0.561451 -0.542866 0.523006 -0.026744 0.247642 1.230137 -0.629679 -0.457034 -0.397268 1.429357 1.181838 0.303805 0.211612 -0.328926 -0.050528 0.121240 -0.697257 -0.418287 -1.088417 -0.214433 -1.003200 -0.143891 -1.062690 0.743719 1.297749 1.002613 -0.085897 -0.041565 0.410324 0.176293 -0.339952 -0.693261 0.367557 -0.500236 -0.496346 -0.554705 -0.957117 0.534667 -0.727088 0.259767 0.460865 -0.570021 -1.524337 0.322628 0.629009 -0.284927 0.600335 0.008211 -0.430822 0.307313 0.048776 -0.336269 1.105554 -0.247094 0.615829 0.690945 0.698112 0.206600 -0.639723 
Engineer -0.379344 -0.659575 0.314552 -0.643243 0.394054 0.409010 0.861729 0.515769 -0.592189 -0.151801 -0.775386 0.833534 -0.163360 -0.574796 -0.108138 -0.339911 0.264099 0.263655 0.057804 1.049696 0.456877 -0.554911 0.523886 -0.855200 0.029649 -0.152768 -0.643540 0.698832 -0.275428 0.315678 0.588787 -0.246981 -0.718234 0.343374 0.420399 0.794357 0.108898 -0.925004 0.609602 -0.272556 -0.210809 0.137695 -0.559703 -1.032312 -0.983249 0.625405 0.760876 0.479215 0.081534 -0.900420 0.365294 -0.100180 0.662993 0.733428 -0.526044 0.978377 0.109827 0.384919 -0.216651 -0.583427 0.143117 -1.012572 -0.491408 -1.131409 0.084624 0.470244 -0.029784 -0.169979 0.248485 -0.384746 -0.069431 -0.574583 0.027297 0.299840 -0.520734 -0.428022 -0.433782 0.194617 -1.343786 -0.331320 0.352943 0.089364 0.984778 -0.471030 0.492189 0.091253 -0.143862 -0.696194 0.241814 -0.042503 0.782400 0.471261 1.149295 0.472578 0.020349 0.224280 -0.196582 0.540770 0.680728 0.059879 
clerk 0.693166 -0.004949 0.239356 0.018970 -0.512393 0.084874 -0.333463 -0.062473 0.223642 0.029691 0.522437 0.658088 -0.929720 -0.318921 -0.069099 -0.069836 0.446253 0.683603 -0.057055 -0.382435 0.293911 0.693925 0.519691 0.409519 -0.063691 -0.047673 0.223588 0.400484 0.267998 0.476194 -0.235250 0.022400 0.399925 0.411420 -0.136941 -0.057082 0.112287 -0.622848 -0.011721 -0.595409 -0.143263 0.037430 -0.087092 -0.183909 -0.270639 0.096773 0.516349 -0.321769 -0.724613 -1.173189 -0.253555 0.073936 0.003744 0.087333 -0.153674 -0.198911 0.115496 -0.489288 0.322698 -0.830368 0.110772 -0.140020 -0.639286 -0.271505 0.369394 0.611935 -0.056145 -0.002105 0.432983 -0.513094 -0.325992 0.864998 -0.392731 -0.331220 -0.319084 -0.179509 0.065474 0.031799 -0.200742 0.170509 0.419449 -0.235598 0.156224 0.137578 -0.137122 0.160937 -0.226807 0.554271 0.302727 -0.014098 0.254695 -0.302444 -0.120737 -0.230941 -0.336592 -0.352108 0.526325 0.398509 -0.554805 -1.131173 
director 0.945116 -0.162020 0.024049 0.354622 -0.452692 -0.089158 -0.618515 -0.172027 0.295883 0.152541 1.008601 0.364926 -1.037807 -0.246855 0.035055 0.325685 0.229726 0.727466 0.181747 -0.375343 0.318356 1.147360 0.685418 0.349674 -0.308656 -0.147738 0.214018 0.321216 0.258272 0.588027 -0.337310 -0.105637 0.543523 0.411847 -0.101711 -0.242318 -0.022554 -0.697255 -0.334871 -0.582025 0.033864 0.032723 0.187278 -0.155934 -0.280246 0.345623 0.410181 -0.349810 -0.926197 -0.851295 0.233094 0.037730 -0.162230 0.201454 0.431759 -0.221568 0.235458 -0.705214 0.278137 -1.087777 -0.151037 -0.393307 -0.646178 0.224082 0.384820 0.654229 0.083294 0.103606 0.384403 -0.309717 -0.352181 0.723290 -0.506648 -0.285429 0.064061 0.057806 0.023783 0.333416 0.142059 0.230460 0.888246 -0.514457 -0.145910 0.079143 -0.191689 0.304599 -0.268431 0.960308 0.050105 -0.217051 0.343169 -0.222205 -0.287726 -0.401772 -0.536009 -0.357766 0.532934 0.547162 -0.642390 -1.111173 
engineer 0.933481 0.071385 0.264201 0.026058 -0.754705 0.176465 -0.514958 -0.000264 0.304177 0.052050 0.716011 0.867410 -1.074417 -0.365446 0.060805 -0.080557 0.610061 0.909646 -0.110082 -0.537162 0.228934 0.836110 0.553448 0.596599 -0.130423 -0.038721 0.342862 0.507425 0.379435 0.429410 -0.178103 0.014798 0.476041 0.503723 -0.182312 0.015095 0.162915 -0.635599 0.042725 -0.720986 -0.070461 0.092368 -0.058443 -0.197462 -0.277852 -0.003398 0.556279 -0.408590 -0.882188 -1.420566 -0.419559 -0.033755 -0.050154 0.086055 -0.218464 -0.243868 0.106141 -0.585404 0.465383 -0.917334 0.191537 0.010485 -0.698714 -0.173243 0.408857 0.631694 -0.151314 0.011201 0.487261 -0.570149 -0.361505 1.112046 -0.456048 -0.392330 -0.341769 -0.231469 0.077143 -0.006420 -0.261946 0.214885 0.437966 -0.368558 0.179641 0.304454 -0.292608 0.094989 -0.231658 0.650259 0.365827 0.003357 0.238578 -0.403970 -0.200021 -0.450106 -0.334513 -0.426543 0.630773 0.413649 -0.658268 -1.314332 
assistant 0.907171 0.031478 0.092460 0.122084 -0.576240 0.122966 -0.620665 -0.100223 0.276307 0.107298 0.805263 0.653951 -0.949344 -0.392452 0.090541 0.096157 0.438478 0.775876 -0.008808 -0.440755 0.163404 0.906525 0.471655 0.466481 -0.222102 -0.126091 0.353593 0.448561 0.386888 0.358358 -0.260189 -0.009179 0.559293 0.422786 -0.108835 -0.148962 0.074209 -0.663494 0.003649 -0.563790 0.038129 0.131711 0.045520 -0.166794 -0.178589 0.005120 0.435192 -0.396122 -0.876321 -1.102177 -0.276660 0.025924 -0.160152 0.085434 0.016926 -0.274683 0.250403 -0.535495 0.410673 -0.913204 0.013260 0.053700 -0.608176 0.055358 0.376552 0.505610 -0.153385 0.006545 0.463780 -0.410063 -0.234802 0.963017 -0.372040 -0.419298 -0.199628 -0.050546 0.138036 0.162607 -0.006840 0.220916 0.548210 -0.491551 -0.083837 0.287843 -0.333520 0.111125 -0.244232 0.721584 0.211709 -0.105064 0.254272 -0.404620 -0.259388 -0.569444 -0.407420 -0.401520 0.553246 0.359485 -0.725125 -1.120457 
Secretary -0.221590 -0.729223 0.116235 -0.399435 0.660958 0.145103 0.702533 0.277748 -0.609807 0.025199 -0.139841 0.412567 -0.041707 -0.226165 -0.235798 0.199093 -0.109174 0.066669 0.213096 1.085861 0.380001 -0.173649 0.518628 -0.914429 -0.110901 -0.237685 -0.535715 0.381106 -0.477093 0.329228 0.375583 -0.527682 -0.387352 -0.014588 0.596317 0.395011 -0.061079 -0.660813 0.206298 0.108886 -0.260802 -0.145240 -0.341504 -0.783966 -0.873082 0.702726 0.661443 0.420315 -0.121898 -0.244401 0.785198 0.127283 0.531053 0.868514 -0.061332 0.884431 0.087674 0.051152 -0.363538 -0.562867 -0.342494 -0.847913 -0.286522 -0.784950 0.310430 0.416627 0.260920 0.121779 0.254726 -0.044434 -0.015168 -0.749707 0.010568 0.392297 -0.209148 -0.253796 -0.497466 0.136466 -0.486981 -0.490006 0.441433 -0.064368 0.550607 -0.767817 0.310339 0.246353 -0.259330 -0.313781 -0.118235 -0.267842 0.263068 0.573580 0.695165 0.577695 -0.125395 0.252290 -0.052270 0.547303 0.552796 0.394421 
Senior -0.421256 -0.760075 0.236526 -0.579003 0.235722 0.295604 0.732789 0.505868 -0.560847 -0.162284 -0.713016 0.859755 -0.304165 -0.714744 -0.240907 -0.348925 0.359088 0.302351 0.139844 1.146163 0.510047 -0.355121 0.793319 -0.917876 -0.107586 0.104154 -0.764806 0.811065 -0.295810 0.555492 0.423053 -0.338011 -0.553660 -0.058282 0.350084 0.690764 0.219240 -0.934778 0.571364 -0.061404 -0.316466 0.337265 -0.583852 -1.214880 -0.988956 0.788101 0.992630 0.700090 -0.143507 -0.795619 0.298504 -0.072990 0.742714 0.738217 -0.809949 0.940017 -0.016720 0.062163 -0.124768 -0.500873 -0.174018 -0.820401 -0.330928 -1.319921 0.202043 0.697273 -0.068254 0.098718 0.107088 -0.486226 0.032323 -0.442641 0.141799 0.264569 -0.817526 -0.612354 -0.256112 0.214676 -1.201741 -0.343334 0.452437 0.315900 0.881827 -0.406572 0.550354 0.105360 -0.315862 -0.642136 0.246057 -0.331825 0.805514 0.447094 0.966321 0.452058 -0.055241 0.332639 -0.276577 0.664320 0.466531 0.078697 
equipment 1.029243 0.240323 0.485081 -0.003493 -0.798871 0.078003 -0.462314 -0.185888 0.276939 0.023118 0.700109 0.895129 -1.060514 -0.232787 -0.050338 -0.116508 0.696665 0.867484 -0.134044 -0.675300 0.260414 0.855224 0.471283 0.652446 -0.084138 -0.068995 0.448948 0.479491 0.318880 0.404435 -0.322694 0.023981 0.518502 0.489062 -0.111522 -0.019863 0.195042 -0.593323 0.039025 -0.738250 -0.122609 -0.023926 -0.111773 -0.122422 -0.126739 -0.092187 0.587589 -0.517287 -0.855111 -1.531426 -0.564875 0.099726 -0.007821 0.094804 -0.317307 -0.355711 0.084848 -0.695240 0.382734 -0.888133 0.248920 0.131869 -0.775521 -0.407194 0.485220 0.701064 -0.103891 0.013852 0.551331 -0.703990 -0.459393 1.291859 -0.535361 -0.408302 -0.413780 -0.304371 0.062119 -0.194505 -0.210674 0.215965 0.301139 -0.247308 0.191336 0.215283 -0.331329 0.149681 -0.203129 0.655243 0.441034 0.101221 0.058062 -0.458272 -0.332862 -0.355313 -0.343794 -0.511297 0.808229 0.262280 -0.786741 -1.416260 
Equipment -0.388390 -0.398113 0.264862 -0.749636 0.452846 0.331378 0.768040 0.451828 -0.679415 -0.090299 -0.880458 0.655913 0.058185 -0.462179 -0.067841 -0.480446 0.260859 0.117998 0.087314 0.927775 0.361612 -0.759943 0.394497 -0.781509 0.033696 -0.328412 -0.599455 0.557625 -0.282009 0.148632 0.657406 -0.215487 -0.805503 0.319691 0.443107 0.958561 0.203061 -0.892203 0.578574 -0.218780 -0.116750 0.108270 -0.537665 -1.068807 -0.927710 0.557194 0.665855 0.518016 0.236728 -0.744235 0.310794 -0.108608 0.695133 0.846317 -0.375576 1.106113 0.022771 0.550281 -0.171082 -0.463063 0.193912 -0.835419 -0.450171 -0.942182 0.016289 0.304617 -0.176581 -0.001879 0.210711 -0.223968 -0.052825 -0.665308 0.210514 0.284296 -0.306970 -0.356051 -0.244131 0.156322 -1.252623 -0.161606 0.049714 -0.041364 1.078585 -0.481699 0.348888 -0.015626 -0.010861 -0.783814 0.184807 -0.059145 0.582837 0.402435 1.139994 0.328933 0.093330 0.167922 -0.084001 0.339153 0.696222 0.402650 
Band -0.077251 -0.869783 0.936591 -0.207813 0.550314 -0.526693 0.568067 0.092823 0.409994 0.497155 0.183472 0.477547 -0.922998 0.251690 -0.793196 1.110011 -0.409691 -0.309888 0.329001 0.761961 0.493005 0.689072 0.735940 -0.159578 0.097098 -0.379103 0.166187 -0.194292 0.210310 0.802392 -0.798790 -0.839327 0.260180 0.252449 -0.304809 -0.952929 -0.443598 -0.331028 0.130128 0.279031 -1.009467 -0.524086 -0.599563 0.289625 0.094973 0.131405 1.302214 -0.739454 -0.493358 -0.159431 1.329502 1.329107 0.493974 0.126198 -0.458990 0.016447 0.497490 -0.618472 -0.280001 -1.045544 -0.282540 -0.976261 -0.083495 -1.088910 0.647370 1.215882 1.141310 -0.189153 0.035497 0.365812 0.064617 -0.688706 -0.386737 0.380583 -0.571082 -0.603371 -0.627538 -0.783703 0.550024 -0.645912 0.072308 0.389391 -0.500442 -1.408523 0.297269 0.519577 -0.224344 0.627993 0.156063 -0.369804 0.281926 -0.093207 -0.090694 0.959200 -0.410772 0.419464 1.092350 0.853995 0.128362 -0.574061 
secretary 0.889667 -0.249823 0.137985 0.323885 -0.163072 -0.255404 -0.356724 -0.391382 0.068446 0.148540 1.276463 0.451587 -0.705960 -0.285825 -0.281376 0.661906 -0.046667 0.751048 0.221395 0.036168 0.022820 1.181329 0.597954 -0.207167 -0.269877 -0.282559 0.097477 0.686575 0.110566 0.581704 -0.166348 -0.421333 0.510325 0.357955 0.369612 -0.401218 -0.206659 -0.853597 -0.221307 -0.697648 0.176718 -0.122618 0.049569 -0.136285 -0.318285 0.572170 0.696544 -0.385942 -0.714288 -0.813076 0.604091 0.187223 -0.043978 0.601184 0.523144 -0.097834 0.202007 -0.569485 0.220293 -1.270187 -0.382033 -0.477128 -0.609620 0.144288 0.674949 0.913451 0.379967 0.064551 0.634191 -0.305494 -0.437807 0.579380 -0.499082 -0.097757 0.273884 0.013784 -0.300877 0.232866 0.409337 -0.191023 0.914948 -0.622461 -0.244540 -0.218426 -0.070754 0.402817 -0.414062 1.026706 -0.196892 -0.480666 0.239658 -0.019343 -0.212397 -0.465003 -0.618298 -0.131615 0.573480 0.425333 -0.535200 -0.624020 
United -0.206244 -0.731185 0.862296 0.008812 0.468225 -0.572950 0.619105 -0.073655 0.674315 0.184430 -0.004958 0.415691 -0.685758 -0.084242 -0.924224 0.873730 -0.256103 -0.334640 0.228335 0.626267 0.615660 0.480661 0.688299 -0.209410 0.186604 -0.257429 -0.089102 -0.048985 -0.069065 0.890942 -0.467116 -0.638971 0.349250 0.172644 -0.075634 -0.769474 -0.512776 -0.326494 -0.003705 -0.009890 -0.558039 -0.642392 -0.742774 0.465257 -0.217404 0.477146 0.970967 -0.328032 -0.582401 -0.401330 1.283385 1.085302 0.301382 0.250893 -0.481578 -0.084987 0.103125 -0.583358 -0.552892 -0.888164 -0.093876 -0.898187 -0.142585 -1.123452 0.959002 1.184533 1.001756 -0.003650 -0.081002 -0.010671 -0.208146 -0.116931 -0.520214 0.128912 -0.430894 -0.528253 -0.345844 -0.733258 0.492051 -0.546392 0.389256 0.537317 -0.320808 -1.262667 0.395998 0.405557 -0.239196 0.397845 -0.258997 -0.515953 0.317498 0.047325 -0.242251 1.078615 -0.133799 0.441473 0.781614 0.510333 0.262737 -0.582545 
Director -0.303010 -0.564745 0.121646 -0.531643 0.356124 0.369114 0.669039 0.434983 -0.595118 -0.070564 -0.516377 0.558978 -0.111446 -0.465360 -0.027158 -0.234832 0.120327 0.256988 0.068064 0.891957 0.396279 -0.437722 0.493916 -0.730053 -0.024950 -0.051287 -0.569516 0.425676 -0.271632 0.272820 0.479743 -0.206613 -0.496009 0.132030 0.361624 0.676622 0.167968 -0.699432 0.346745 -0.039858 -0.236137 0.145483 -0.431172 -0.928817 -0.900394 0.530788 0.594156 0.524304 -0.056541 -0.532007 0.241674 -0.072967 0.546976 0.594996 -0.362658 0.815998 0.044821 0.280033 -0.155075 -0.437408 -0.115395 -0.750279 -0.312938 -0.875903 0.070530 0.314275 -0.013834 -0.006660 0.224263 -0.297375 0.028154 -0.576762 0.136227 0.268960 -0.393728 -0.260490 -0.323159 0.257489 -0.936558 -0.274960 0.311129 0.025438 0.777190 -0.413613 0.289584 0.057113 -0.227841 -0.518608 0.133404 -0.078587 0.522964 0.403693 0.913033 0.421264 0.000138 0.156069 -0.193668 0.506139 0.511069 0.131893 
Chinese -0.158019 -0.316825 0.348747 0.026673 0.271559 -0.235720 0.486025 0.052004 0.243969 0.137520 0.007095 0.275849 -0.394873 -0.159063 -0.422027 0.318582 0.028852 -0.057805 0.180240 0.357455 0.364954 0.185860 0.456997 -0.137742 0.119279 -0.147384 -0.052591 0.180509 0.165043 0.472397 -0.203547 -0.264596 0.066890 0.105821 -0.008421 -0.331235 -0.145977 -0.227287 0.221269 -0.086393 -0.215606 -0.188610 -0.382828 0.195520 -0.079271 0.131495 0.561815 -0.175454 -0.260060 -0.449641 0.641740 0.438952 0.078935 0.107270 -0.313277 -0.080702 -0.020374 -0.241923 -0.157727 -0.573315 0.067315 -0.413310 -0.272127 -0.624182 0.404978 0.648210 0.207836 -0.065522 -0.012281 0.065208 0.005428 0.174430 -0.299925 -0.018404 -0.380921 -0.260142 -0.102234 -0.487795 -0.001024 -0.221008 0.197352 0.271527 -0.060848 -0.611636 0.136649 0.236561 -0.155126 0.127888 -0.033979 -0.225443 0.298430 0.024080 -0.028953 0.500008 -0.059470 0.303591 0.210397 0.328806 0.167606 -0.402047 
Setter -0.281706 -0.245888 0.168617 -0.469458 0.228667 0.188501 0.513276 0.342682 -0.393587 -0.060562 -0.780515 0.495457 -0.097077 -0.322273 -0.090230 -0.338893 0.109029 0.038210 0.042193 0.630942 0.294461 -0.498213 0.353122 -0.499127 0.031020 -0.256550 -0.403084 0.353046 -0.091301 0.068561 0.468376 -0.010820 -0.524993 0.374350 0.286626 0.604922 0.068845 -0.642538 0.394236 -0.322942 0.002997 0.171096 -0.358939 -0.753977 -0.611133 0.404451 0.568887 0.347272 0.203486 -0.670092 0.277490 -0.104626 0.523637 0.499740 -0.221235 0.810721 -0.031145 0.405965 -0.059127 -0.448297 0.159265 -0.706775 -0.311798 -0.767426 0.016475 0.393873 -0.079179 0.011410 0.193815 -0.191864 -0.058370 -0.367580 0.111573 0.284630 -0.200733 -0.282941 -0.170511 0.116154 -0.945868 0.039858 -0.024038 0.041955 0.735943 -0.290502 0.341953 0.012675 -0.039977 -0.458596 0.199372 -0.059839 0.576161 0.351573 0.873076 0.169673 0.142146 0.156566 0.072598 0.275829 0.509085 0.229445 
setter 0.667159 0.227999 0.276935 -0.018951 -0.516696 0.222678 -0.331278 -0.072745 0.116623 -0.027863 0.355828 0.764480 -0.865100 -0.385163 -0.081839 -0.246506 0.579320 0.724485 -0.216323 -0.604313 0.200908 0.596632 0.436280 0.523930 0.023920 0.082715 0.262421 0.371711 0.208652 0.298384 -0.138098 0.255484 0.396907 0.416632 -0.203052 0.062589 0.209539 -0.461110 -0.042506 -0.688944 -0.206565 0.087367 -0.062714 -0.276469 -0.360319 -0.006025 0.465599 -0.259823 -0.673636 -1.339567 -0.700435 -0.038847 -0.028240 0.067802 -0.229560 -0.176217 0.089458 -0.456680 0.332126 -0.604255 0.202858 0.079487 -0.599731 -0.295957 0.262845 0.447637 -0.158992 0.006740 0.519406 -0.673227 -0.322395 0.984750 -0.457281 -0.353013 -0.456420 -0.214546 0.067519 0.051419 -0.292437 0.196727 0.260456 -0.217060 0.305059 0.268436 -0.181548 0.103754 -0.153254 0.485102 0.472860 0.268440 0.171735 -0.381577 -0.175483 -0.209236 -0.281547 -0.468214 0.467545 0.224447 -0.704046 -1.151623 
Indian -0.107671 -0.865964 1.097817 -0.343318 0.558772 -0.592180 0.575348 0.051593 0.462181 0.582636 0.083773 0.576616 -0.927240 0.373750 -0.890288 1.133451 -0.403952 -0.485537 0.320545 0.751485 0.499579 0.648381 0.675848 -0.074192 0.188663 -0.480287 0.318070 -0.314381 0.288536 0.864418 -0.983275 -0.897898 0.242541 0.256355 -0.303906 -1.070826 -0.446066 -0.293109 0.277506 0.490043 -1.189427 -0.592252 -0.724584 0.375946 0.306916 -0.027493 1.380728 -0.863697 -0.511598 -0.085709 1.405492 1.575161 0.531735 0.078926 -0.704060 -0.036422 0.602556 -0.577503 -0.302303 -1.005937 -0.181776 -0.864747 -0.018482 -1.233781 0.717717 1.317487 1.251449 -0.288445 0.012015 0.404856 0.035336 -0.787727 -0.259027 0.339238 -0.738143 -0.733246 -0.636158 -0.975554 0.670292 -0.644253 -0.189214 0.469127 -0.564741 -1.529935 0.234194 0.448700 -0.134522 0.616014 0.226145 -0.352299 0.246962 -0.161116 -0.089294 1.032085 -0.459401 0.435158 1.327071 0.875839 0.144624 -0.555414 
Australian -0.363002 -0.579745 0.823220 -0.470461 0.348881 -0.440659 0.670637 0.173354 0.340045 0.307795 -0.291448 0.543755 -0.616074 0.094625 -0.765243 0.562930 -0.201532 -0.400676 0.185386 0.650382 0.566853 0.133495 0.451849 -0.055067 0.332685 -0.280984 0.089347 -0.016878 0.310453 0.789907 -0.610678 -0.529376 -0.038279 0.169255 -0.140551 -0.618448 -0.222861 -0.369014 0.431530 0.402963 -0.808505 -0.377766 -0.816305 0.223182 0.128851 -0.000577 1.068064 -0.427544 -0.343888 -0.259598 1.022676 1.136463 0.456068 -0.004466 -0.845354 -0.025742 0.309413 -0.253757 -0.243000 -0.701768 0.107232 -0.675434 -0.147330 -1.167516 0.558475 0.962785 0.680744 -0.293375 -0.088203 0.167122 -0.065817 -0.420890 -0.062611 0.112028 -0.804296 -0.637829 -0.281021 -0.782489 0.145479 -0.411541 -0.261773 0.562191 -0.130601 -1.127615 0.256931 0.181342 -0.085915 0.121276 0.164582 -0.269844 0.316564 -0.029721 0.197890 0.855634 -0.252160 0.397279 0.808371 0.674235 0.284464 -0.423946 
vice 1.230163 -0.470399 -0.457756 0.547256 -0.830273 -0.285072 -0.841224 -0.183650 0.097540 0.181661 1.266596 -0.160140 -1.483128 0.129391 0.278138 -0.074739 0.283683 0.545178 0.659748 0.071802 1.056355 1.115079 1.426313 0.202617 -0.220681 -0.351781 0.056505 0.198397 0.130438 1.643461 -1.003941 0.000718 0.233874 0.429751 0.190565 -0.123319 0.141218 -1.541350 -0.409148 -0.527745 -0.183188 0.075441 0.219873 -0.392858 -0.276791 0.697567 0.131306 -0.104954 -1.203918 -0.739302 1.242702 -0.042110 -0.170520 0.452896 0.718063 -0.271740 0.683073 -0.396026 0.624530 -1.756050 0.001113 -0.840741 -1.065914 0.483753 0.470291 1.337080 0.158977 -0.157943 0.518432 -0.369386 -1.015899 0.230215 0.119639 -0.604092 0.289858 0.390098 0.350612 1.179738 -0.098518 0.804994 1.486623 -0.632214 0.146601 0.155773 -0.408327 0.518064 -0.289762 1.062495 -0.154521 -0.871063 1.316497 -0.082436 0.276960 -0.522931 -0.979650 -0.463163 0.717963 1.433738 -0.373450 -1.310097 
executive 0.748160 -0.312450 -0.241463 0.208078 -0.489252 0.206768 -0.608870 0.038072 -0.005718 0.077346 0.645546 0.386419 -0.909907 -0.405246 0.346145 -0.039888 0.398392 0.702809 0.158417 -0.009727 0.460429 0.741510 0.696716 0.196710 -0.274793 -0.047047 0.086472 0.345884 0.247526 0.633735 -0.207290 0.042703 0.213555 0.450968 0.029407 0.145689 0.211611 -0.943369 -0.064298 -0.391577 0.065212 0.352413 0.072419 -0.485383 -0.376801 0.316067 0.201512 -0.012661 -0.845364 -0.729688 0.074121 -0.250689 -0.166463 0.155207 0.224174 -0.078306 0.464887 -0.246702 0.441494 -0.926751 -0.076122 -0.351958 -0.656185 0.242833 0.095307 0.432080 -0.154493 -0.119827 0.376752 -0.398952 -0.316369 0.372547 -0.067587 -0.386825 -0.094059 0.196062 0.116840 0.845796 -0.353733 0.335216 0.940380 -0.497552 0.134482 0.404758 -0.233958 0.120756 -0.218488 0.492673 0.128528 -0.213705 0.822907 -0.163244 0.245581 -0.525148 -0.502327 -0.372341 0.206609 0.825411 -0.448536 -0.970312 
Inspector -0.373135 -0.597678 0.249619 -0.673194 0.414984 0.394875 0.811663 0.518717 -0.632940 -0.113555 -0.781296 0.757663 -0.129287 -0.576741 -0.086462 -0.352340 0.245584 0.253734 0.074746 1.023836 0.457126 -0.596550 0.522650 -0.816121 0.003969 -0.157594 -0.629840 0.609462 -0.273963 0.277802 0.595704 -0.229979 -0.680418 0.331984 0.416569 0.858327 0.130994 -0.910029 0.535731 -0.260291 -0.194531 0.159001 -0.560681 -1.055624 -1.007579 0.611445 0.759734 0.501988 0.055418 -0.838022 0.360494 -0.103819 0.657560 0.769423 -0.438459 1.017508 0.072434 0.412056 -0.159335 -0.583617 0.096026 -0.966434 -0.461053 -1.068230 0.078002 0.433085 -0.056951 -0.070693 0.254539 -0.350679 -0.033628 -0.583889 0.089257 0.297218 -0.455245 -0.376036 -0.388672 0.214497 -1.278026 -0.296040 0.278296 0.017146 0.999529 -0.461386 0.426337 0.049376 -0.152180 -0.695135 0.194180 -0.065405 0.731278 0.445988 1.144507 0.421909 0.025402 0.215508 -0.150413 0.537553 0.669060 0.115253 
inspector 0.817262 -0.148636 0.146866 0.052570 -0.524469 0.219923 -0.402916 0.021954 0.301733 0.018642 0.751524 0.906219 -1.148428 -0.440314 -0.065043 0.084601 0.466890 0.816133 -0.035449 -0.245427 0.256884 0.939502 0.563786 0.366768 -0.154595 -0.106378 0.297452 0.574230 0.327375 0.432217 -0.126353 -0.107416 0.554231 0.455016 -0.093137 -0.129170 0.065754 -0.775085 0.131612 -0.696056 -0.050287 0.054470 -0.096642 -0.243353 -0.340465 0.060049 0.661824 -0.418579 -0.911398 -1.381681 -0.299940 0.091978 0.008665 0.066851 -0.270602 -0.158547 0.284140 -0.622130 0.385975 -1.015940 -0.014045 -0.138662 -0.683767 -0.307908 0.461330 0.604524 -0.154542 -0.059506 0.524476 -0.466650 -0.254514 0.947818 -0.508241 -0.351578 -0.402738 -0.235952 -0.010687 0.082277 -0.235440 0.079688 0.664119 -0.303418 0.072045 0.187241 -0.180368 0.184425 -0.302766 0.613697 0.337450 -0.055783 0.346280 -0.362031 -0.180957 -0.343243 -0.336926 -0.349971 0.630739 0.499982 -0.670165 -1.227379 
general 0.856246 -0.142544 0.130245 0.202562 -0.385134 -0.066181 -0.450481 -0.210894 0.213559 0.110806 0.983112 0.562364 -0.922144 -0.334218 -0.125196 0.322415 0.231979 0.791013 0.133706 -0.258841 0.218863 1.034767 0.589350 0.202233 -0.209408 -0.152419 0.215402 0.538650 0.263836 0.566022 -0.233760 -0.187539 0.509976 0.405890 0.033341 -0.256934 -0.054972 -0.775142 -0.156653 -0.676981 0.045739 0.004050 0.001645 -0.140089 -0.288141 0.312647 0.595436 -0.383620 -0.836093 -1.057129 0.170000 0.118744 -0.087869 0.294613 0.197061 -0.176335 0.200133 -0.608231 0.329075 -1.139197 -0.118933 -0.327386 -0.658088 0.004593 0.483827 0.741755 0.105576 0.032895 0.527308 -0.379406 -0.357200 0.815133 -0.494279 -0.272330 -0.060686 -0.076686 -0.081265 0.168583 0.096126 0.049149 0.728100 -0.486377 -0.048624 -0.002783 -0.143658 0.264977 -0.321275 0.834910 0.041870 -0.258718 0.297004 -0.222548 -0.222342 -0.395155 -0.484974 -0.273424 0.559648 0.474916 -0.578762 -0.983117 
president 1.020981 -0.346918 -0.199322 0.422973 -0.595477 -0.240490 -0.616740 -0.163531 0.170505 0.144244 1.097410 0.078006 -1.268300 -0.003909 0.092892 0.080573 0.245307 0.575827 0.468762 -0.031573 0.769586 1.065809 1.116308 0.206114 -0.189364 -0.256110 0.067505 0.294476 0.129560 1.226730 -0.683021 -0.073169 0.336727 0.375640 0.124263 -0.168828 0.043655 -1.211519 -0.351358 -0.529342 -0.107768 -0.001863 0.165767 -0.334839 -0.325522 0.617876 0.306418 -0.182056 -1.031328 -0.824749 0.876392 0.031878 -0.097228 0.420782 0.555983 -0.192089 0.456384 -0.529243 0.419294 -1.475922 -0.047148 -0.734437 -0.911764 0.240371 0.495191 1.070662 0.142549 -0.031180 0.468948 -0.316633 -0.759019 0.429776 -0.187825 -0.422501 0.164472 0.188303 0.183735 0.757836 -0.041778 0.535972 1.245182 -0.502383 0.072050 0.024242 -0.230217 0.482348 -0.278402 0.949461 -0.086047 -0.609888 0.887227 -0.103605 0.063433 -0.390051 -0.751478 -0.384595 0.635420 1.059671 -0.430244 -1.176372 
Turks -0.756535 -0.518958 0.481184 0.459983 0.674665 -0.487389 1.386028 -0.052141 0.715368 0.234907 -0.353701 0.193175 -0.569858 -0.807055 -1.002982 0.545114 0.578947 -0.003554 0.535469 0.493482 0.837017 0.125148 1.089257 -0.478940 0.476259 -0.144116 -0.398686 0.699715 0.392422 1.027336 0.102755 -0.040203 -0.000871 0.171266 -0.015262 -0.516591 -0.300651 -0.264187 0.662118 -0.792271 0.152015 -0.246211 -0.874526 0.853900 -0.373606 0.364617 0.790912 0.095335 -0.470340 -1.491168 1.327907 0.454622 -0.283186 0.218417 -0.750030 -0.515359 -0.806891 -0.448187 -0.617762 -1.024812 0.642621 -0.765910 -0.614765 -1.229339 0.824220 1.549202 0.011089 -0.120886 -0.235778 0.117553 0.225703 1.085046 -0.976958 -0.235827 -0.876318 -0.231914 0.156377 -1.288571 -0.354970 -0.570539 0.620225 0.925433 -0.118624 -1.389770 0.381594 0.498077 -0.403408 0.018824 -0.210605 -0.533473 0.896815 0.234634 -0.335830 1.234011 0.396263 1.146367 -0.526409 0.393488 0.651786 -1.200119 
British -0.002431 -0.441496 0.519877 -0.270173 0.131419 -0.187640 0.319720 0.078321 0.150162 0.139565 0.061541 0.514142 -0.588160 0.054696 -0.412079 0.315794 -0.008293 -0.069675 0.107440 0.450037 0.392092 0.278438 0.442069 -0.062808 0.127232 -0.233194 0.061499 0.124529 0.132839 0.545884 -0.372135 -0.375873 0.065119 0.183215 0.034988 -0.326466 -0.124287 -0.451854 0.245298 0.127206 -0.488237 -0.240130 -0.429965 -0.062150 -0.035951 0.125711 0.728518 -0.304897 -0.348027 -0.416774 0.556270 0.630216 0.330090 0.134832 -0.471721 0.054724 0.321561 -0.286329 -0.104942 -0.679748 -0.013262 -0.517714 -0.290617 -0.826685 0.448702 0.693811 0.388265 -0.178826 0.142979 -0.035461 -0.179308 -0.131728 -0.148186 0.055147 -0.503560 -0.434737 -0.244851 -0.332672 -0.050804 -0.219738 0.071499 0.233451 -0.004601 -0.604810 0.152284 0.225199 -0.140943 0.179221 0.186533 -0.181709 0.249023 -0.028648 0.144923 0.426399 -0.257492 0.073145 0.634177 0.579946 0.028094 -0.440821 
General -0.288987 -0.548800 0.096918 -0.541993 0.416163 0.270856 0.628906 0.371984 -0.603977 -0.073161 -0.418645 0.551671 -0.062250 -0.369644 -0.090680 -0.196373 0.140851 0.144131 0.101601 0.948929 0.395211 -0.402950 0.452554 -0.732771 -0.044305 -0.164157 -0.485495 0.473421 -0.304519 0.281716 0.431734 -0.267796 -0.487334 0.063730 0.494849 0.609266 0.086759 -0.702794 0.370687 -0.022350 -0.214675 0.068456 -0.427126 -0.907339 -0.784923 0.532266 0.604119 0.487150 -0.043129 -0.486935 0.400299 -0.030296 0.520245 0.729539 -0.295354 0.843294 0.084326 0.249903 -0.199799 -0.480015 -0.101466 -0.679893 -0.327885 -0.856182 0.169990 0.314879 -0.022332 0.026238 0.247046 -0.217851 -0.050677 -0.509773 0.132407 0.242132 -0.384543 -0.313156 -0.298115 0.194225 -0.846779 -0.297674 0.259374 0.009560 0.713851 -0.460371 0.275411 0.049282 -0.203541 -0.528541 0.088585 -0.177251 0.427144 0.445959 0.865506 0.382107 -0.021840 0.168025 -0.096877 0.503509 0.497666 0.278656 
Cdre 0.658307 -0.096814 1.205777 -0.744082 -0.466980 -0.248346 0.065608 -0.966931 -0.186681 -0.588340 0.379534 1.498256 -0.367653 0.974592 -0.471336 -0.522932 1.332874 -0.998693 -0.170488 0.738003 0.121319 0.025103 0.303568 -0.283479 0.713964 -1.383834 0.830323 0.753294 -0.295614 0.721222 -0.464553 -0.585759 -0.279613 -0.110407 1.842936 -0.207567 0.028988 -1.124060 1.314907 0.956014 -0.438772 -1.028819 -0.397376 -0.078309 1.036891 0.120835 0.074014 -0.239906 -0.456348 -1.067315 0.098083 0.456496 0.252825 0.698572 -1.469895 -0.031259 1.002892 -0.092645 -0.691794 -0.935106 0.459526 0.255266 -1.019925 -2.189186 1.747563 1.045909 0.053966 -0.732066 0.858327 -0.957384 -1.664414 0.793128 0.238460 -0.514197 -1.205291 -1.041790 -0.036962 -0.099908 -0.740659 0.243562 -0.188171 0.646268 0.318201 0.157546 -0.116770 0.342371 0.245849 -0.452817 0.656513 -0.064833 -0.261012 0.279112 0.188904 0.151551 -0.566538 -1.001934 1.271773 0.663497 -0.391833 -0.257184 
cancer -0.817772 -0.731229 0.131861 0.388188 0.277711 -0.893110 1.244870 0.131148 0.773628 -0.725605 1.246849 0.097770 -0.811977 0.477784 -0.970108 0.251535 -0.507820 0.279173 0.016842 1.249442 0.818732 0.796077 0.368267 0.091165 0.024635 0.386142 -0.686173 1.051832 0.023196 0.920900 -0.092195 -0.548025 0.854766 -0.478536 0.691034 -0.979609 -0.501157 -0.609027 -0.382190 -0.107951 0.552589 -0.772126 -0.098286 -0.012444 -0.102091 0.984544 0.734526 -0.468595 0.206332 -0.700602 0.879399 0.605312 0.308345 -0.440859 -0.030598 -0.233951 0.070176 -1.452124 -0.340407 -1.251758 -0.390401 -1.813365 -1.187471 -1.703285 0.797148 0.040826 -0.450825 0.018736 0.078074 0.276471 -0.626186 1.564066 -1.759403 0.218920 -0.405225 -0.579831 -0.040075 -0.666324 -0.560234 -0.339289 1.170572 1.230866 -0.230056 -0.429859 1.346735 1.189871 -0.706115 0.237439 -0.019275 -0.556623 -0.273112 0.109637 -0.384960 0.543636 -0.112952 -0.355922 0.408633 0.870564 -0.389330 -0.744883 
Commodore 0.793802 -0.259370 1.337313 -0.760039 -0.475935 -0.208012 0.114813 -0.908500 -0.145447 -0.593313 0.560651 1.763328 -0.711894 0.799028 -0.562903 -0.504576 1.436949 -0.823306 -0.072132 0.799436 0.351891 0.202810 0.631738 -0.293106 0.641534 -1.390680 0.808332 0.950193 -0.260344 0.954429 -0.488073 -0.683082 -0.168159 -0.012632 1.841934 -0.221805 0.019089 -1.391981 1.323413 0.816079 -0.571403 -1.058527 -0.541755 -0.261038 0.844633 0.251150 0.357616 -0.305989 -0.724495 -1.462295 0.216503 0.555017 0.311033 0.882228 -1.597106 -0.019713 1.104027 -0.277843 -0.692340 -1.287341 0.458200 0.077359 -1.228375 -2.426204 1.954722 1.349635 0.117452 -0.726417 0.982053 -1.077941 -1.788436 0.965827 0.115905 -0.585813 -1.367740 -1.166084 -0.079552 -0.101828 -0.833893 0.167477 0.087466 0.643583 0.356168 -0.026130 -0.137244 0.433907 0.134933 -0.306562 0.683137 -0.210293 -0.132311 0.262152 0.224032 0.219495 -0.703341 -1.018897 1.441043 0.864991 -0.498133 -0.556799 
Sales -0.265345 -0.700346 0.243620 -0.494074 0.305669 0.367354 0.760165 0.423440 -0.522225 -0.097331 -0.435555 0.705075 -0.304432 -0.509679 -0.106428 -0.143054 0.177355 0.338692 0.082731 0.962590 0.518703 -0.270480 0.620815 -0.751375 -0.007079 -0.062413 -0.570821 0.565870 -0.241087 0.471082 0.386012 -0.271354 -0.393720 0.208781 0.420512 0.555135 0.115164 -0.891845 0.397285 -0.113429 -0.296066 0.092732 -0.475963 -0.953754 -0.954390 0.618999 0.757732 0.454425 -0.198602 -0.774600 0.357385 0.001093 0.562079 0.594876 -0.424795 0.708688 0.097165 0.185911 -0.204707 -0.651143 -0.095644 -0.916886 -0.464911 -1.083784 0.215358 0.533704 0.065898 -0.126916 0.297685 -0.417716 -0.104474 -0.439957 -0.017588 0.243512 -0.499097 -0.360426 -0.373679 0.244210 -1.015112 -0.315984 0.509622 0.098020 0.749404 -0.487933 0.346368 0.133724 -0.281717 -0.421070 0.167257 -0.104160 0.625923 0.388113 0.895920 0.475431 -0.073232 0.123155 -0.122658 0.672526 0.445755 -0.114145 
deputy 0.628410 -0.200015 -0.072605 0.141025 -0.244081 0.000055 -0.391685 -0.043863 0.207329 0.152974 0.814895 0.446316 -0.781597 -0.311974 -0.026739 0.321276 0.108345 0.619598 0.210174 -0.002580 0.183153 0.838979 0.494326 0.079080 -0.266709 -0.216748 0.148175 0.496521 0.278385 0.417579 -0.173338 -0.190024 0.448364 0.313790 0.056208 -0.207228 -0.086217 -0.795077 -0.007197 -0.454756 0.085371 0.074853 0.030226 -0.200502 -0.280849 0.258243 0.517041 -0.309494 -0.712547 -0.757941 0.245172 0.096305 -0.056165 0.216142 0.181637 -0.034601 0.276257 -0.420328 0.330143 -1.048695 -0.205897 -0.303571 -0.496519 0.094082 0.374512 0.493867 0.011071 0.008317 0.405065 -0.152261 -0.183214 0.509288 -0.306951 -0.229582 -0.018008 0.001644 0.032340 0.259971 0.028893 0.072713 0.723378 -0.477765 -0.140818 -0.012901 -0.154409 0.207630 -0.321425 0.658199 -0.044559 -0.364019 0.361956 -0.197310 -0.075199 -0.449728 -0.392137 -0.216753 0.419485 0.466537 -0.437384 -0.652452 
Cancer 0.063615 -0.899925 0.485703 0.469584 0.352048 -0.717441 0.727874 -0.149309 0.596913 -0.321402 1.167334 0.251322 -1.064281 0.147723 -0.797914 0.842072 -0.310143 0.249572 0.250281 0.806497 0.663264 1.233104 0.713736 -0.357171 -0.057223 -0.060493 -0.474622 0.620826 -0.277486 0.873929 -0.073164 -0.682488 0.578371 -0.012391 0.352894 -0.824900 -0.650043 -0.510483 -0.506645 -0.466423 0.062447 -0.821978 0.062642 0.072152 -0.437777 1.137436 0.826290 -0.476531 -0.432960 -0.689598 1.035530 0.516368 0.383699 0.220874 0.309731 -0.119389 0.109496 -1.351838 -0.630810 -1.409238 -0.567083 -1.647120 -0.787473 -1.190793 0.919045 0.732805 0.427879 0.234550 0.250434 0.008000 -0.553872 0.634555 -1.504181 0.376100 -0.118940 -0.449074 -0.523425 -0.383669 -0.024370 -0.570786 1.359938 0.515292 -0.395675 -0.853885 0.880832 1.047331 -0.550814 0.676518 -0.117524 -0.455811 -0.110188 0.323365 -0.509387 0.814101 -0.248162 -0.113632 0.483206 0.733690 -0.307990 -0.910263 
Executive -0.359804 -0.783132 0.201384 -0.488207 0.348007 0.499471 0.805279 0.512348 -0.594619 -0.175829 -0.557769 0.716936 -0.201617 -0.614963 -0.026340 -0.219739 0.203415 0.348715 -0.036940 1.118578 0.468867 -0.429100 0.564720 -0.812168 0.010281 0.113970 -0.648300 0.564519 -0.265972 0.377990 0.493769 -0.175479 -0.558729 0.201177 0.391866 0.678299 0.171055 -0.777394 0.472668 -0.005203 -0.341727 0.224351 -0.484140 -0.968362 -0.993970 0.532811 0.588237 0.527885 -0.117733 -0.628293 0.140666 -0.127102 0.562676 0.450791 -0.576140 0.702536 0.165829 0.259563 -0.193863 -0.452153 -0.073066 -0.907927 -0.395916 -1.106719 0.039252 0.356519 0.064771 -0.196249 0.250456 -0.485984 -0.015488 -0.637485 0.030109 0.269258 -0.627505 -0.306597 -0.472596 0.347728 -1.190843 -0.424678 0.488019 0.170699 0.822478 -0.341286 0.405752 0.117050 -0.272530 -0.640902 0.228683 -0.000530 0.720220 0.440301 1.007508 0.582120 -0.054946 0.147595 -0.365723 0.739068 0.517024 -0.148631 
senior 0.805981 -0.202893 0.185760 0.117412 -0.456347 -0.197437 -0.819914 -0.215919 0.126942 0.312428 0.426700 0.370064 -0.965705 -0.322530 0.226351 0.055292 0.624810 0.456682 0.264279 -0.180044 0.725092 0.938825 0.848013 0.532805 -0.275405 -0.227184 0.367255 0.059211 0.535735 0.937940 -0.456562 0.140542 0.146276 0.514241 0.051818 0.088533 0.220966 -1.058117 -0.126889 -0.145057 0.028974 0.357651 -0.050707 -0.445444 -0.059000 0.479260 0.306090 0.019987 -1.050147 -0.643735 0.462943 -0.064562 -0.348216 0.357691 0.285328 -0.049876 0.430309 -0.350173 0.250133 -1.230624 0.179405 -0.612990 -0.828810 0.247259 0.291855 0.616102 -0.148702 -0.084172 0.172833 -0.380039 -0.514535 0.563651 -0.181962 -0.347699 -0.185424 0.102045 0.223516 0.830455 -0.243596 0.630664 0.783510 -0.498191 -0.071180 0.220550 -0.225415 0.073010 -0.124143 0.740124 0.131794 -0.294712 0.833151 -0.230984 0.152361 -0.546881 -0.663832 -0.483914 0.464267 0.933956 -0.546557 -1.099765 
- 0.579079 -0.200742 -0.119102 0.164028 -0.442601 -0.074985 -0.326479 -0.033296 -0.008666 0.065425 0.611989 0.151487 -0.784381 -0.064581 0.113683 -0.107196 0.225849 0.456227 0.241507 0.076252 0.522879 0.586115 0.732787 0.120751 -0.147541 -0.109917 -0.002773 0.291974 0.089380 0.752164 -0.403518 -0.015259 0.155249 0.254479 0.158952 0.042756 0.141376 -0.861291 -0.145408 -0.313682 -0.075192 0.104131 0.038164 -0.413749 -0.279353 0.404218 0.250355 -0.031158 -0.631426 -0.587264 0.429725 -0.052207 0.013768 0.282335 0.245496 -0.049979 0.287582 -0.256911 0.326905 -0.924437 -0.035040 -0.474721 -0.639813 0.018106 0.250266 0.640137 -0.010861 -0.038955 0.323511 -0.325289 -0.520466 0.306841 -0.014798 -0.269333 0.015220 0.058964 0.160683 0.543516 -0.234592 0.358563 0.699985 -0.292916 0.177412 0.114366 -0.122856 0.240780 -0.180666 0.501445 0.085050 -0.355586 0.602035 -0.045490 0.189797 -0.347696 -0.475420 -0.299361 0.383870 0.749764 -0.275577 -0.725948 
Baptist -0.460784 -0.563789 1.086772 -0.368706 0.471226 -0.318062 0.602858 0.009317 0.768485 0.153960 -0.831001 0.956982 -0.285654 -0.157419 -1.175678 0.498671 0.053057 -0.721313 0.023351 0.711439 0.801441 -0.350474 0.605663 -0.147636 0.531201 -0.411056 0.191181 -0.441672 -0.089708 1.153817 -0.588629 -0.588612 0.447943 0.298993 0.037959 -0.364542 -0.398618 -0.631904 0.388201 0.316900 -0.780775 -0.748775 -1.577626 0.415863 -0.216037 0.191755 1.168612 -0.094751 -0.571211 -0.621080 1.309629 1.529776 0.101866 0.108791 -1.357031 0.255817 0.238045 0.064776 -0.308329 -0.493140 0.206825 -0.341896 0.075068 -1.474094 1.235764 1.337936 1.178473 -0.283434 -0.197622 -0.455682 -0.308534 -0.263002 0.292581 -0.322722 -0.760530 -0.630901 -0.045252 -0.744018 0.423664 -0.370630 -0.262494 0.661769 0.217699 -1.311947 0.182765 -0.319326 -0.079921 0.126673 -0.523835 -0.628481 0.615072 -0.235931 0.054855 1.062870 -0.110476 0.427632 1.320309 0.323973 0.602957 -0.393758 
Tribe -0.081024 -0.847628 0.877034 -0.083023 0.643212 -0.560069 0.575440 0.029479 0.415134 0.461832 0.249632 0.340264 -0.808130 0.219468 -0.800007 1.193682 -0.483808 -0.303945 0.332292 0.696042 0.428745 0.721358 0.634776 -0.241414 0.070147 -0.339472 0.071372 -0.189540 0.121240 0.690534 -0.681080 -0.823519 0.282491 0.184268 -0.291477 -0.984429 -0.526046 -0.166070 -0.005792 0.230337 -0.911136 -0.579230 -0.474669 0.371028 0.042477 0.211061 1.190843 -0.701975 -0.444337 -0.058748 1.333263 1.255920 0.471252 0.142133 -0.297356 -0.023250 0.368164 -0.661008 -0.397785 -0.932641 -0.343379 -0.971489 -0.018632 -0.968424 0.636574 1.099744 1.147509 -0.088393 -0.007255 0.431776 0.098061 -0.689518 -0.503062 0.417304 -0.431199 -0.525761 -0.666541 -0.823218 0.658916 -0.693476 0.170839 0.380861 -0.569244 -1.431445 0.329708 0.550673 -0.221738 0.649475 0.038476 -0.321954 0.151246 0.001389 -0.235860 1.017532 -0.333897 0.465064 0.926722 0.701704 0.131736 -0.484978 
disease -0.593319 -0.566596 0.063645 0.221834 0.081397 -0.630920 0.926823 0.140029 0.555581 -0.621396 1.095018 0.202444 -0.752363 0.411727 -0.743532 0.071052 -0.323690 0.342702 -0.021762 1.025379 0.704217 0.670178 0.340277 0.166744 -0.002025 0.299380 -0.487443 0.972850 0.067617 0.781676 -0.122647 -0.435458 0.704496 -0.355818 0.667496 -0.743090 -0.316228 -0.683556 -0.237923 -0.072961 0.429916 -0.586098 -0.069210 -0.192194 -0.068153 0.759584 0.624628 -0.386140 0.125900 -0.682191 0.611958 0.458344 0.289829 -0.335489 -0.091662 -0.166650 0.181878 -1.178138 -0.128605 -1.115349 -0.296778 -1.433866 -1.089305 -1.412092 0.638637 0.026720 -0.498811 -0.064608 0.165698 0.143344 -0.616564 1.364548 -1.359671 0.106997 -0.414533 -0.524291 0.012828 -0.438913 -0.551220 -0.163437 0.948127 0.938864 -0.060620 -0.192132 1.010473 0.942826 -0.563107 0.207512 0.066910 -0.450233 -0.158422 0.026874 -0.180426 0.255136 -0.189146 -0.437425 0.453900 0.816906 -0.397223 -0.631425 
Specialist -0.375590 -0.614279 0.196779 -0.537883 0.410231 0.375732 0.766865 0.458980 -0.554338 -0.139147 -0.615988 0.646479 -0.063235 -0.487303 -0.066282 -0.217460 0.130160 0.230093 0.026400 0.946410 0.368150 -0.478719 0.411018 -0.758715 -0.010180 -0.076215 -0.574766 0.525851 -0.262807 0.254654 0.535512 -0.222746 -0.627912 0.248117 0.361485 0.676011 0.055975 -0.708688 0.437136 -0.156316 -0.192745 0.140746 -0.431995 -0.865025 -0.889321 0.535176 0.585593 0.433948 0.059723 -0.615299 0.290885 -0.114258 0.528832 0.588797 -0.377929 0.833261 0.088163 0.348254 -0.204667 -0.378257 0.047298 -0.857364 -0.359692 -0.909916 -0.007696 0.300725 0.009661 -0.132184 0.195720 -0.323051 0.004525 -0.596802 0.037767 0.298894 -0.389243 -0.309438 -0.429650 0.194843 -1.088531 -0.339749 0.309571 0.039276 0.823744 -0.384472 0.423224 0.085613 -0.135439 -0.616248 0.143266 -0.015830 0.614566 0.454886 0.967832 0.464478 0.014971 0.202225 -0.269090 0.484217 0.601658 0.096041 
Vice -0.228790 -0.477619 -0.013666 -0.269204 0.128336 0.305088 0.517824 0.382001 -0.478443 -0.117498 -0.345632 0.422687 -0.156747 -0.406221 -0.000083 -0.248360 0.107951 0.267116 0.149974 0.812820 0.363756 -0.236360 0.554448 -0.677216 -0.100481 0.112722 -0.537887 0.518865 -0.279815 0.394568 0.178266 -0.168651 -0.346911 -0.037120 0.350963 0.503973 0.184903 -0.704058 0.227032 0.051776 -0.203915 0.253399 -0.218131 -0.948495 -0.756734 0.524221 0.464379 0.494141 -0.152553 -0.336344 0.291351 -0.176520 0.481540 0.496427 -0.307135 0.567677 -0.008669 0.186182 -0.100116 -0.313891 -0.183732 -0.649928 -0.238545 -0.677804 0.031072 0.319487 0.002205 -0.030860 0.108576 -0.337806 -0.112783 -0.455467 0.250205 0.174528 -0.348964 -0.236762 -0.142552 0.422509 -0.842391 -0.093895 0.445399 0.083732 0.593500 -0.204225 0.290657 0.053120 -0.143373 -0.387680 0.182221 -0.237367 0.576002 0.349027 0.718081 0.167482 -0.059488 0.177583 -0.280861 0.602349 0.378010 0.057290 
class 0.731327 -0.243432 1.030722 -0.593824 -0.426197 -0.188363 0.065351 -0.673386 -0.084844 -0.355438 0.411431 1.364914 -0.686633 0.594447 -0.442258 -0.329181 1.204218 -0.480546 -0.092646 0.492638 0.304583 0.336033 0.561417 -0.114966 0.464995 -1.121916 0.597485 0.676185 -0.192698 0.813744 -0.463796 -0.587728 0.007428 0.252967 1.302796 -0.166697 0.139459 -1.243992 1.012729 0.411734 -0.347101 -0.782279 -0.438679 -0.231117 0.495207 0.248970 0.460795 -0.316098 -0.669364 -1.289054 0.174792 0.500219 0.260456 0.718867 -1.192801 0.011432 0.782957 -0.352719 -0.417893 -1.190712 0.347306 -0.057003 -1.050682 -1.888511 1.500948 1.185295 0.038532 -0.533996 0.811235 -0.826162 -1.362727 0.840314 -0.075904 -0.429430 -1.031104 -0.905008 -0.116730 -0.185101 -0.623217 0.071961 0.029915 0.380677 0.393633 -0.092476 -0.081704 0.352506 0.084118 -0.055996 0.470730 -0.146921 -0.016257 0.145071 0.126721 0.099918 -0.581059 -0.854971 1.296785 0.759303 -0.393093 -0.598814 
Installer -0.143611 -0.334285 0.234876 -0.403432 0.166296 0.170364 0.444677 0.228433 -0.312505 -0.091627 -0.383433 0.536648 -0.174550 -0.280424 -0.100619 -0.219994 0.216239 0.132932 0.027870 0.566923 0.302048 -0.274855 0.360229 -0.406910 0.046354 -0.198030 -0.303260 0.410961 -0.110101 0.256360 0.283329 -0.151789 -0.364511 0.237142 0.297326 0.436084 0.099776 -0.630119 0.376202 -0.137969 -0.134787 0.033251 -0.357968 -0.605529 -0.528443 0.353798 0.480855 0.227618 -0.043317 -0.619426 0.190075 0.010734 0.396735 0.454706 -0.333979 0.529692 0.079491 0.175967 -0.100901 -0.444687 0.095845 -0.572396 -0.387251 -0.748720 0.157835 0.355853 -0.041518 -0.070926 0.195800 -0.254916 -0.134277 -0.212433 0.014681 0.123824 -0.332686 -0.286216 -0.186881 0.069188 -0.756607 -0.118121 0.170844 0.047209 0.590986 -0.270962 0.237946 0.076457 -0.078608 -0.354185 0.153333 -0.058729 0.397774 0.227741 0.620309 0.230454 -0.020221 0.043304 0.061155 0.363573 0.305447 -0.037000 
installer 0.729850 0.087590 0.390530 -0.085278 -0.560083 0.119702 -0.254770 -0.086858 0.163048 -0.038912 0.476005 0.827460 -0.873747 -0.299142 -0.095983 -0.149691 0.607728 0.707568 -0.132405 -0.408076 0.263272 0.617989 0.460350 0.423014 -0.031337 -0.055431 0.279575 0.471213 0.226180 0.386643 -0.161450 0.012592 0.373325 0.423393 -0.034033 0.042721 0.164552 -0.592115 0.095759 -0.595427 -0.150653 -0.001254 -0.157768 -0.223370 -0.237124 0.039266 0.554932 -0.335690 -0.687436 -1.346732 -0.425262 0.064967 0.052115 0.138816 -0.337501 -0.183815 0.091223 -0.519864 0.263387 -0.799039 0.210353 -0.035138 -0.692555 -0.486108 0.449128 0.594553 -0.116671 -0.021694 0.487558 -0.625239 -0.405434 0.995800 -0.458127 -0.315862 -0.466945 -0.308634 0.002148 -0.100240 -0.324184 0.122311 0.301300 -0.160964 0.267460 0.145844 -0.161612 0.135038 -0.200638 0.442745 0.396591 0.077683 0.133140 -0.306932 -0.144275 -0.219825 -0.300821 -0.411873 0.591242 0.326521 -0.587066 -1.134084 
specialist 0.679183 -0.019917 0.224326 0.059550 -0.489001 0.094760 -0.317777 -0.022688 0.204531 0.011512 0.565236 0.653794 -0.890555 -0.317702 -0.036613 -0.017748 0.431212 0.731325 -0.075426 -0.336168 0.224577 0.705658 0.510122 0.387210 -0.083406 -0.035623 0.214305 0.435208 0.234717 0.385033 -0.153212 -0.013618 0.390393 0.398891 -0.130267 -0.015197 0.098731 -0.551940 -0.030658 -0.599966 -0.076344 0.032091 -0.041840 -0.200666 -0.291792 0.104646 0.485581 -0.290735 -0.708972 -1.139435 -0.276521 0.022168 0.001252 0.098398 -0.116543 -0.195366 0.105524 -0.513587 0.294231 -0.792761 0.069589 -0.151521 -0.604020 -0.218584 0.360349 0.556296 -0.060351 0.002872 0.408908 -0.486937 -0.305872 0.864524 -0.442972 -0.279661 -0.278869 -0.172637 0.023856 0.032948 -0.211292 0.118565 0.443600 -0.243030 0.139247 0.156755 -0.112805 0.164956 -0.233614 0.538468 0.293145 0.017143 0.238952 -0.270519 -0.138467 -0.270867 -0.318346 -0.320673 0.477220 0.382698 -0.537459 -1.072058 
class) 0.742115 -0.235151 1.227865 -0.637689 -0.401935 -0.210833 0.070994 -0.844616 -0.082381 -0.567644 0.620438 1.672084 -0.760891 0.654321 -0.575775 -0.352386 1.289960 -0.605519 -0.070188 0.691408 0.306711 0.279941 0.633252 -0.263554 0.591865 -1.201280 0.684013 0.967441 -0.171575 0.907167 -0.426153 -0.635768 -0.081050 -0.012259 1.660765 -0.226642 -0.011238 -1.293685 1.183694 0.651365 -0.489590 -0.980885 -0.500175 -0.210339 0.683548 0.283646 0.473530 -0.324543 -0.710022 -1.511116 0.232854 0.520894 0.316763 0.816829 -1.385091 -0.020301 0.988856 -0.332450 -0.643070 -1.334866 0.391061 -0.043993 -1.238303 -2.199977 1.797931 1.348062 0.165191 -0.654218 0.930557 -0.990170 -1.619661 0.980069 -0.003249 -0.506281 -1.233253 -1.053135 -0.070298 -0.092843 -0.753190 0.143933 0.227555 0.610074 0.307804 -0.079517 -0.129993 0.460435 0.056160 -0.138838 0.646073 -0.207783 -0.047666 0.220638 0.175543 0.190550 -0.689425 -0.864021 1.347583 0.787539 -0.496604 -0.659755 
Republic 0.305190 -0.941507 0.583516 0.300163 0.594880 -0.497066 0.564197 -0.117455 0.280956 0.187085 0.777647 0.399298 -0.868189 -0.121083 -0.780279 1.190643 -0.343576 0.122218 0.452738 0.758054 0.413527 1.091256 0.853597 -0.662876 -0.162252 -0.394296 -0.288053 0.440387 -0.212022 0.797132 -0.199904 -0.802509 0.333541 0.132290 0.173792 -0.725834 -0.590652 -0.545648 -0.226436 -0.357977 -0.337702 -0.682358 -0.126928 0.050389 -0.494082 0.938066 1.048249 -0.458897 -0.698029 -0.540286 1.431765 0.721143 0.344515 0.684001 0.260664 0.141227 0.192038 -0.980670 -0.609031 -1.386295 -0.563076 -1.311282 -0.421108 -0.810457 0.885385 1.211014 0.839036 0.125766 0.223106 0.180189 -0.160336 -0.201362 -0.993702 0.377503 -0.100363 -0.379231 -0.719051 -0.407978 0.362845 -0.655029 1.109527 0.043794 -0.321957 -1.267583 0.444643 0.854827 -0.448284 0.717045 -0.252108 -0.496369 0.198545 0.449441 -0.239226 0.867569 -0.375806 0.344227 0.464952 0.707889 0.061072 -0.580119 
Brazilian -0.187068 -0.388176 0.495648 -0.256219 0.154534 -0.277142 0.408921 0.108362 0.269192 0.175114 -0.101709 0.374905 -0.486855 0.022339 -0.494036 0.341852 -0.092970 -0.166865 0.124911 0.396237 0.422356 0.159541 0.344689 -0.002789 0.193882 -0.141251 0.024754 0.055011 0.214880 0.563369 -0.395586 -0.315570 0.049325 0.137574 -0.073047 -0.395594 -0.149941 -0.308338 0.250872 0.183212 -0.454707 -0.233331 -0.524163 0.121957 0.021998 0.063261 0.694491 -0.277612 -0.297037 -0.283940 0.639671 0.693120 0.282023 -0.001060 -0.517006 -0.038266 0.191205 -0.245950 -0.146696 -0.544731 0.061580 -0.486326 -0.185627 -0.761266 0.397946 0.644468 0.392696 -0.163566 -0.038135 0.046503 -0.100330 -0.123231 -0.125237 0.043699 -0.517573 -0.408335 -0.147372 -0.460238 0.055874 -0.231900 -0.049463 0.344152 -0.079169 -0.681214 0.186812 0.149227 -0.108933 0.119700 0.107337 -0.206432 0.233902 -0.037169 0.107263 0.517000 -0.175698 0.222553 0.524402 0.480433 0.128053 -0.393635 
agent 0.499631 -0.190447 0.210564 -0.033112 -0.305877 0.079539 -0.087689 0.020252 0.095689 -0.018024 0.415313 0.668603 -0.817513 -0.286663 -0.096659 -0.024207 0.352105 0.553029 -0.014313 -0.034765 0.313909 0.555310 0.557006 0.118114 -0.064631 -0.103402 0.049350 0.496156 0.130341 0.462329 -0.091712 -0.104599 0.278852 0.335154 0.070233 -0.015531 0.030425 -0.704383 0.097802 -0.486876 -0.119266 -0.041435 -0.136011 -0.290986 -0.366932 0.221811 0.544636 -0.209830 -0.578938 -1.055086 -0.015120 0.083066 0.108820 0.243497 -0.193691 0.003714 0.168477 -0.395009 0.160283 -0.833060 0.049296 -0.301940 -0.654922 -0.448865 0.450049 0.591693 -0.039832 -0.035170 0.407492 -0.423871 -0.292840 0.631609 -0.407050 -0.228247 -0.332521 -0.228524 -0.037436 0.041965 -0.316595 0.023045 0.525036 -0.145715 0.197001 0.010604 -0.003865 0.241526 -0.236109 0.382444 0.210640 -0.075142 0.280955 -0.118124 0.057016 -0.099536 -0.301067 -0.234175 0.418098 0.451135 -0.347437 -0.864390 
Professor -0.087817 -0.592988 0.165953 -0.093133 0.364591 -0.024670 0.495524 0.205651 -0.164044 0.017808 0.045539 0.322736 -0.330446 -0.212981 -0.269977 0.291729 -0.125138 0.158151 0.181803 0.703798 0.340116 0.168542 0.484114 -0.592176 -0.090015 -0.081685 -0.422809 0.315547 -0.265440 0.404816 0.183026 -0.389031 -0.077599 0.039569 0.230532 0.048219 -0.124791 -0.496860 0.016338 -0.121562 -0.165842 -0.150415 -0.193912 -0.435103 -0.636600 0.610791 0.610413 0.139245 -0.221371 -0.346358 0.578524 0.173328 0.355369 0.473201 0.003343 0.442942 0.043546 -0.217647 -0.275371 -0.623723 -0.346306 -0.800639 -0.264676 -0.654813 0.282258 0.490488 0.244858 0.093241 0.157067 -0.056790 -0.009652 -0.309168 -0.289458 0.277826 -0.175919 -0.196587 -0.409952 0.037668 -0.280651 -0.381331 0.558362 0.054697 0.209837 -0.601228 0.324027 0.300401 -0.256323 0.021565 -0.050524 -0.244080 0.251143 0.304877 0.309458 0.462701 -0.143902 0.175202 0.070865 0.409897 0.230401 -0.062599 
analyst 0.725006 -0.090964 0.128785 0.039790 -0.482824 0.133134 -0.364237 -0.016094 0.183127 0.008334 0.594326 0.662204 -0.949947 -0.329526 -0.013171 -0.050356 0.433025 0.693562 0.012706 -0.274562 0.311313 0.727713 0.572051 0.324295 -0.117810 -0.097007 0.198773 0.459429 0.264637 0.488472 -0.180937 -0.032660 0.378432 0.427317 -0.086494 -0.005591 0.096891 -0.722626 0.000403 -0.577226 -0.099232 0.061228 -0.063557 -0.284547 -0.330837 0.154138 0.506224 -0.274449 -0.776771 -1.168469 -0.135685 0.032735 0.008871 0.152833 -0.098790 -0.118610 0.213135 -0.465941 0.305633 -0.927032 0.068245 -0.220031 -0.674780 -0.218766 0.367141 0.608255 -0.076801 -0.012692 0.443783 -0.467696 -0.317536 0.767330 -0.356393 -0.307737 -0.283643 -0.146943 0.055255 0.166552 -0.247669 0.194331 0.558715 -0.304946 0.187154 0.138841 -0.159162 0.183192 -0.240454 0.531596 0.271654 -0.072054 0.349197 -0.262533 -0.057586 -0.276541 -0.369765 -0.338580 0.514079 0.483542 -0.520191 -1.075350 
Staff -0.219274 -0.518875 0.113377 -0.364101 0.238615 0.310955 0.542648 0.354795 -0.415345 -0.095507 -0.364796 0.499724 -0.149652 -0.390796 -0.008861 -0.147612 0.131142 0.234234 0.022937 0.747756 0.343384 -0.267071 0.389364 -0.565099 -0.001480 -0.009267 -0.435243 0.393014 -0.195751 0.271048 0.354003 -0.167069 -0.369787 0.168048 0.295065 0.465218 0.091791 -0.615813 0.304580 -0.067470 -0.200432 0.129557 -0.325540 -0.705681 -0.701343 0.401160 0.449087 0.352982 -0.098624 -0.498026 0.167060 -0.091163 0.391289 0.385706 -0.307332 0.536983 0.102125 0.195976 -0.117691 -0.382246 -0.067648 -0.626634 -0.301404 -0.735875 0.064963 0.279097 0.003185 -0.110534 0.197684 -0.297231 -0.017080 -0.400984 0.027413 0.163337 -0.367263 -0.206378 -0.301452 0.243976 -0.815920 -0.251884 0.334054 0.057452 0.566849 -0.258969 0.259349 0.071490 -0.175649 -0.410657 0.133599 -0.043756 0.499046 0.303192 0.716150 0.339282 -0.038776 0.095202 -0.175173 0.488880 0.366599 -0.059876 
Kingdom -0.160887 -0.605891 0.622432 0.072860 0.408528 -0.505229 0.544706 -0.057069 0.509000 0.130639 0.191229 0.258760 -0.587603 -0.005215 -0.730324 0.775401 -0.265333 -0.187695 0.217075 0.501457 0.451392 0.525145 0.549725 -0.188826 0.119889 -0.187092 -0.138569 0.091154 -0.040509 0.640180 -0.325724 -0.558403 0.275237 0.083332 -0.056388 -0.712322 -0.442322 -0.197685 -0.043678 -0.059933 -0.383092 -0.520606 -0.436106 0.380862 -0.138507 0.407915 0.785311 -0.332836 -0.411549 -0.311642 1.019754 0.778925 0.271070 0.185540 -0.251806 -0.114145 0.060425 -0.600288 -0.452140 -0.769698 -0.154111 -0.838371 -0.201094 -0.883405 0.707019 0.900270 0.710118 0.007205 -0.051623 0.109622 -0.119529 -0.009650 -0.595125 0.191358 -0.339075 -0.399597 -0.347356 -0.622341 0.352563 -0.489487 0.399155 0.453845 -0.328082 -0.994019 0.372983 0.467036 -0.224065 0.371964 -0.158316 -0.382240 0.175569 0.099101 -0.255680 0.843936 -0.128190 0.347303 0.515978 0.451378 0.130797 -0.476675 
Deputy -0.140758 -0.657178 -0.042040 -0.445957 0.498182 0.365727 0.543536 0.382822 -0.627663 0.089056 -0.011965 0.534822 -0.188475 -0.399292 -0.020809 -0.011496 0.063270 0.334198 0.151300 0.907813 0.426485 -0.186833 0.556112 -0.688919 -0.147359 -0.089804 -0.460681 0.380484 -0.346211 0.316203 0.370036 -0.352453 -0.286174 -0.046341 0.501292 0.524861 0.089314 -0.677260 0.214070 0.113612 -0.292887 0.015291 -0.403356 -0.852586 -0.959475 0.494558 0.621968 0.446826 -0.333219 -0.422593 0.405062 0.083887 0.427715 0.765778 -0.141624 0.827768 0.143206 0.077082 -0.151227 -0.602228 -0.309779 -0.602568 -0.380257 -0.678690 0.191315 0.257815 0.009078 0.070343 0.349360 -0.139767 0.116225 -0.500562 0.076952 0.216833 -0.415185 -0.168102 -0.364444 0.276768 -0.589477 -0.400492 0.484740 -0.128507 0.572977 -0.555413 0.077736 0.099803 -0.330060 -0.328415 -0.014827 -0.202935 0.330938 0.362340 0.708975 0.437333 -0.131007 0.123360 -0.092451 0.656855 0.420482 0.122822 
to 0.222905 -0.714662 0.502192 0.257929 0.230248 -0.344701 0.368650 -0.046484 0.539584 -0.028079 0.530932 0.500525 -1.045259 -0.475200 -0.643344 0.797835 -0.080023 0.370624 0.219893 0.350385 0.510495 1.024528 0.847080 -0.171056 -0.097562 -0.141962 -0.342100 0.582824 -0.050764 0.782453 -0.052492 -0.568803 0.478222 0.271557 -0.047306 -0.625429 -0.458090 -0.537009 -0.161468 -0.632130 -0.125455 -0.385286 -0.243496 0.183032 -0.632862 0.743057 0.928707 -0.324249 -0.825927 -0.940516 0.867892 0.497140 0.251712 0.424870 -0.017385 -0.114745 -0.006204 -0.942288 -0.466171 -1.246494 -0.201684 -1.166701 -0.604760 -0.836092 0.839056 1.042860 0.530454 0.134295 0.140619 -0.143404 -0.201835 0.489558 -1.067439 0.140270 -0.303338 -0.404496 -0.422948 -0.386563 0.161600 -0.473789 1.155252 0.233814 -0.260953 -0.832330 0.440935 0.689514 -0.432291 0.602625 -0.172262 -0.381928 0.379856 0.164991 -0.339949 0.673860 -0.211384 0.259976 0.343604 0.562382 -0.136280 -1.012483 
therapist 0.708843 -0.102817 0.301951 0.032605 -0.452192 0.036809 -0.276705 -0.066210 0.277165 0.031017 0.623233 0.728237 -0.994514 -0.297927 -0.119773 0.075521 0.431734 0.664952 0.006457 -0.259346 0.280933 0.780374 0.598449 0.321356 -0.080805 -0.145021 0.238221 0.493053 0.257775 0.495936 -0.235800 -0.114842 0.441691 0.372303 -0.038100 -0.132747 0.036572 -0.672373 0.040084 -0.535504 -0.095865 -0.033955 -0.075070 -0.200612 -0.274276 0.166584 0.602339 -0.319559 -0.784559 -1.206063 -0.094025 0.175689 0.040669 0.165649 -0.129887 -0.188034 0.152888 -0.577143 0.227836 -0.987602 0.055088 -0.241274 -0.638491 -0.366149 0.515554 0.719871 -0.034344 0.027848 0.464024 -0.443551 -0.358058 0.890218 -0.449193 -0.273014 -0.335149 -0.239340 0.024984 -0.047130 -0.169441 0.089568 0.491166 -0.226036 0.073689 0.014689 -0.104002 0.211940 -0.274886 0.597923 0.251763 -0.105698 0.241510 -0.227352 -0.175413 -0.233849 -0.371909 -0.304362 0.637748 0.440109 -0.545304 -1.100432 
Canadian -0.108248 -0.490447 0.572426 -0.245322 0.202047 -0.278652 0.477238 0.104035 0.244406 0.137672 -0.013179 0.525977 -0.614710 -0.066428 -0.570270 0.404883 -0.063097 -0.061660 0.148560 0.487735 0.482089 0.293083 0.482318 -0.105214 0.171323 -0.209830 -0.050577 0.216449 0.150042 0.663565 -0.324725 -0.408734 0.053347 0.194236 0.030961 -0.365526 -0.174589 -0.469123 0.265570 0.071914 -0.440758 -0.293629 -0.531172 0.022749 -0.129764 0.222533 0.834977 -0.278004 -0.397862 -0.489769 0.742066 0.696969 0.345049 0.145382 -0.503306 0.028183 0.201303 -0.348535 -0.220847 -0.762418 0.011296 -0.663801 -0.317981 -0.922072 0.520081 0.800976 0.407021 -0.153888 0.051211 -0.025975 -0.173656 -0.059534 -0.261725 0.056710 -0.561187 -0.469736 -0.226490 -0.458564 -0.044320 -0.296015 0.157949 0.313726 -0.010107 -0.774528 0.235088 0.252147 -0.176288 0.160741 0.094001 -0.249190 0.287479 0.055650 0.140316 0.589415 -0.233796 0.204855 0.558340 0.577645 0.113844 -0.504504 
Marketing -0.505591 -0.694095 0.173796 -0.658046 0.347837 0.574401 0.873483 0.540511 -0.783757 -0.158076 -0.780758 0.596319 -0.040629 -0.555781 0.065933 -0.301154 0.169197 0.275039 -0.046814 1.106211 0.465698 -0.676701 0.518716 -0.880586 0.075046 0.064540 -0.723055 0.452059 -0.254891 0.296512 0.611373 -0.131603 -0.639377 0.193324 0.443316 0.845864 0.305206 -0.782732 0.535286 0.077328 -0.345243 0.267447 -0.546074 -1.121675 -1.020308 0.521287 0.603524 0.702494 0.027946 -0.526984 0.071677 -0.155220 0.605659 0.478496 -0.596775 0.832011 0.073667 0.459268 -0.204804 -0.346420 -0.042834 -0.876043 -0.290174 -1.126732 0.005291 0.279814 0.000109 -0.183642 0.243502 -0.450359 0.025281 -0.780727 0.224600 0.311532 -0.560628 -0.284641 -0.369054 0.379876 -1.251464 -0.345613 0.356399 0.152771 0.952035 -0.404099 0.363766 0.008329 -0.301898 -0.767986 0.227390 0.036611 0.653372 0.494387 1.140885 0.584128 0.048088 0.144104 -0.413967 0.639629 0.607955 0.126104 
Analyst -0.294984 -0.579911 0.243745 -0.509725 0.262574 0.339574 0.707851 0.426802 -0.452380 -0.120617 -0.566506 0.716385 -0.247549 -0.532651 -0.097445 -0.229706 0.192964 0.285719 0.013284 0.895433 0.452485 -0.361233 0.512727 -0.652950 0.022077 -0.087335 -0.523867 0.531355 -0.159234 0.385195 0.440867 -0.194805 -0.517033 0.304244 0.306273 0.599629 0.085146 -0.805988 0.448000 -0.252036 -0.210512 0.139199 -0.480125 -0.838167 -0.838336 0.516000 0.690808 0.375951 -0.078403 -0.806874 0.260764 -0.046995 0.519331 0.521725 -0.461996 0.738626 0.102351 0.241478 -0.118206 -0.552314 0.066349 -0.869422 -0.450366 -0.996239 0.106351 0.445378 0.001979 -0.138209 0.234760 -0.402938 -0.074622 -0.396383 -0.011183 0.234610 -0.485575 -0.359020 -0.334095 0.162204 -1.065117 -0.296603 0.344944 0.097400 0.779223 -0.366243 0.397010 0.112843 -0.204475 -0.502033 0.200858 -0.065734 0.678489 0.359569 0.917954 0.400852 -0.005743 0.152016 -0.126534 0.572748 0.471209 -0.105461 
New -0.243669 -0.610611 0.683890 -0.234229 0.356307 -0.254971 0.683888 0.132605 0.378227 0.095760 -0.229550 0.724331 -0.603641 -0.263746 -0.755823 0.420797 0.065617 -0.124752 0.156333 0.671668 0.654917 0.113955 0.660282 -0.257142 0.254422 -0.256084 -0.111685 0.199101 0.069087 0.878868 -0.245856 -0.467822 0.120189 0.254357 0.069620 -0.278735 -0.237989 -0.630854 0.353238 -0.058547 -0.463117 -0.382697 -0.871765 0.058431 -0.341044 0.341473 1.027475 -0.136134 -0.472068 -0.778274 0.971493 0.869406 0.272603 0.210979 -0.750288 0.165337 0.121583 -0.247410 -0.267773 -0.829825 0.095401 -0.751809 -0.348065 -1.217160 0.761723 1.073226 0.554351 -0.173112 0.013583 -0.191850 -0.167730 0.015544 -0.254625 -0.045358 -0.672824 -0.508716 -0.199107 -0.571166 -0.104009 -0.382668 0.211924 0.438568 0.137785 -1.000906 0.306528 0.177183 -0.222652 0.122902 -0.106896 -0.406023 0.508957 0.034763 0.153840 0.818033 -0.150856 0.360456 0.616001 0.576014 0.311911 -0.583451 
chairman 0.670830 -0.277586 -0.024362 0.266602 -0.350496 -0.156905 -0.309843 -0.117053 0.215122 0.066263 0.822900 0.202081 -0.891593 -0.065595 -0.058357 0.162654 0.139070 0.445635 0.236198 0.015218 0.416036 0.827645 0.684987 0.117865 -0.139822 -0.160739 0.040776 0.303340 0.100093 0.727758 -0.388108 -0.141650 0.345436 0.256987 0.070756 -0.220344 -0.070423 -0.739433 -0.200765 -0.421915 -0.076680 -0.095415 0.053315 -0.130939 -0.227083 0.408511 0.334636 -0.257035 -0.717003 -0.673067 0.470536 0.092801 0.003365 0.229461 0.259282 -0.164075 0.282168 -0.489787 0.210076 -1.034043 -0.114313 -0.489303 -0.609977 -0.026039 0.410493 0.722090 0.130348 -0.009098 0.361845 -0.248226 -0.471603 0.409483 -0.301784 -0.243836 0.035420 0.017842 0.016643 0.311869 0.012119 0.164861 0.813059 -0.254429 -0.047283 -0.031240 -0.077426 0.349802 -0.253399 0.667247 -0.002078 -0.371345 0.451028 -0.085678 -0.079172 -0.203706 -0.468854 -0.266866 0.480029 0.633967 -0.372630 -0.862511 
scientist 0.518511 -0.198599 0.303805 -0.093844 -0.305691 0.110993 -0.089667 0.020883 0.119642 -0.000457 0.423958 0.786939 -0.856359 -0.327601 -0.149443 0.022894 0.408220 0.593626 -0.003143 -0.012087 0.311044 0.580338 0.568378 0.161474 -0.031681 -0.136245 0.120708 0.522307 0.183008 0.459958 -0.090096 -0.137121 0.257827 0.385478 0.039411 0.000212 0.052861 -0.700665 0.145936 -0.487346 -0.151591 -0.013920 -0.200340 -0.287561 -0.359535 0.181656 0.653022 -0.224424 -0.671520 -1.153774 -0.062543 0.137137 0.114355 0.239349 -0.272672 0.001500 0.211691 -0.424876 0.179139 -0.877756 0.051312 -0.321578 -0.618551 -0.515313 0.431548 0.646409 -0.010664 -0.057370 0.440163 -0.439127 -0.314879 0.626693 -0.373716 -0.205946 -0.408206 -0.304385 -0.100194 -0.003671 -0.349694 0.002735 0.449121 -0.146610 0.212325 -0.048190 -0.034362 0.194588 -0.225057 0.357449 0.283997 -0.060862 0.334674 -0.169465 0.027867 -0.075582 -0.310881 -0.216942 0.513062 0.488998 -0.364894 -0.924337 
mechanic 0.579584 0.060255 0.230194 0.016614 -0.436251 0.046214 -0.257359 -0.070219 0.176864 0.014225 0.412205 0.511674 -0.708623 -0.190736 -0.052948 -0.079302 0.399526 0.515524 -0.046852 -0.337525 0.228218 0.535604 0.401077 0.354673 -0.047106 -0.041971 0.215860 0.300345 0.199353 0.351951 -0.201243 0.030322 0.303398 0.302362 -0.068496 -0.015957 0.108596 -0.454720 -0.009565 -0.456095 -0.097309 0.006731 -0.073450 -0.139196 -0.166135 0.059068 0.374121 -0.256672 -0.561350 -0.933687 -0.220616 0.054970 0.001442 0.095379 -0.132488 -0.177311 0.079793 -0.403751 0.229788 -0.638206 0.132588 -0.078587 -0.517675 -0.231870 0.303952 0.486050 -0.064543 0.002302 0.336741 -0.428502 -0.304860 0.728824 -0.322259 -0.249124 -0.261746 -0.162700 0.036346 -0.018761 -0.169223 0.154266 0.295427 -0.155808 0.139104 0.095618 -0.141392 0.116163 -0.154631 0.428077 0.248054 0.007471 0.145029 -0.242305 -0.133124 -0.188949 -0.248348 -0.301080 0.470745 0.274303 -0.459829 -0.885248 
Computer -0.384627 -0.706597 0.233335 -0.561748 0.176691 0.482578 0.854623 0.453945 -0.488032 -0.177572 -0.689466 0.871700 -0.244657 -0.564763 -0.023272 -0.280130 0.249387 0.388515 -0.064782 0.930055 0.430610 -0.358229 0.458533 -0.775333 0.003275 -0.071186 -0.632975 0.652420 -0.161695 0.435795 0.551284 -0.191816 -0.674678 0.387179 0.236391 0.630078 0.062387 -0.856706 0.547543 -0.394133 -0.124182 0.121588 -0.476070 -0.863358 -0.900081 0.609637 0.687189 0.437310 0.054537 -0.913127 0.265986 -0.209236 0.538702 0.588244 -0.514372 0.800824 0.119259 0.303495 -0.166932 -0.474314 0.191478 -1.022689 -0.515762 -1.004475 -0.063338 0.369703 -0.041907 -0.313009 0.220238 -0.461931 -0.122651 -0.398097 -0.072051 0.250628 -0.442389 -0.433613 -0.375930 0.198399 -1.285674 -0.336809 0.519933 0.106268 0.819856 -0.310139 0.581194 0.115508 -0.163389 -0.559648 0.231378 0.000259 0.820807 0.417342 1.096410 0.419526 0.066893 0.165190 -0.361419 0.523164 0.548224 -0.138754 
police 0.609342 -0.332824 -0.111541 0.217515 -0.183024 0.211533 -0.331500 0.111779 0.324495 0.006125 0.779261 0.607674 -0.963536 -0.405242 -0.066429 0.329697 0.133347 0.608509 0.108069 0.023116 0.151367 0.911418 0.439635 0.093840 -0.231411 -0.095957 0.151185 0.472846 0.197205 0.287589 -0.005000 -0.251336 0.582604 0.305373 -0.127502 -0.279446 -0.075791 -0.606155 0.030849 -0.525141 0.053377 0.011441 0.051744 -0.176713 -0.322832 0.120502 0.539835 -0.395260 -0.763547 -0.909579 -0.057245 0.095650 -0.012037 0.005036 -0.063953 -0.096665 0.381923 -0.588110 0.223336 -0.826229 -0.254360 -0.249496 -0.428569 -0.108264 0.317756 0.329190 -0.082611 -0.063365 0.357993 -0.114456 0.000116 0.538324 -0.515565 -0.222740 -0.215705 -0.115262 -0.088352 0.186690 -0.023241 -0.061169 0.870140 -0.285525 -0.121947 0.076866 -0.057958 0.244010 -0.317187 0.500874 0.137356 -0.133704 0.348702 -0.234211 -0.226012 -0.217981 -0.256425 -0.165491 0.389792 0.455179 -0.516711 -0.871272 
South -0.354765 -0.675343 0.701287 0.018880 0.511194 -0.558111 0.852071 -0.011595 0.522248 0.182359 -0.047653 0.339199 -0.633401 -0.213104 -0.832375 0.754942 -0.047448 -0.258342 0.298729 0.650891 0.571258 0.388274 0.682412 -0.340566 0.197959 -0.254978 -0.174486 0.231414 0.081337 0.792595 -0.255971 -0.477706 0.103685 0.113516 -0.041559 -0.667962 -0.425679 -0.226465 0.235308 -0.134217 -0.436840 -0.488946 -0.625659 0.501709 -0.112073 0.408556 0.873999 -0.275920 -0.431334 -0.548711 1.173473 0.814763 0.242475 0.190920 -0.527275 -0.152510 -0.110125 -0.546488 -0.548018 -0.942439 0.038682 -0.877035 -0.288375 -1.173879 0.761587 1.126065 0.654909 -0.058901 -0.101527 0.139244 -0.050577 0.067463 -0.682074 0.148980 -0.576540 -0.438869 -0.268728 -0.861044 0.154591 -0.625117 0.329445 0.608897 -0.307217 -1.212300 0.391651 0.516714 -0.213226 0.200130 -0.117941 -0.429369 0.370471 0.198263 -0.195878 1.083878 -0.009715 0.596628 0.329508 0.567512 0.285281 -0.649409 
President -0.200596 -0.501378 0.095732 -0.222576 0.308303 0.210278 0.539074 0.274434 -0.379538 -0.072130 -0.231621 0.397862 -0.112454 -0.326742 -0.101587 -0.010224 0.009129 0.183960 0.132103 0.740229 0.292507 -0.140930 0.444783 -0.655484 -0.081399 0.001964 -0.469660 0.411592 -0.292976 0.308767 0.229761 -0.263778 -0.294814 0.001450 0.327234 0.337330 0.021556 -0.543109 0.176443 0.017106 -0.176471 0.058869 -0.220279 -0.686686 -0.687564 0.498983 0.468343 0.331432 -0.110599 -0.316184 0.400463 -0.035379 0.395916 0.487250 -0.182520 0.543562 0.021550 0.057876 -0.219211 -0.343946 -0.184571 -0.664140 -0.221549 -0.633835 0.107080 0.321099 0.125695 -0.032902 0.112405 -0.205957 -0.033587 -0.445886 0.010728 0.229273 -0.272317 -0.224383 -0.306705 0.213305 -0.601341 -0.252113 0.433672 0.062930 0.449073 -0.363926 0.296188 0.148249 -0.142815 -0.278815 0.053627 -0.151000 0.405574 0.364867 0.543511 0.333248 -0.064690 0.183490 -0.192491 0.471117 0.374752 0.060858 
Jews -0.050907 -0.471804 0.503982 -0.041126 0.309107 -0.352624 0.387661 0.004524 0.296796 0.230856 0.162852 0.287450 -0.547675 0.033565 -0.542910 0.623545 -0.161194 -0.118670 0.226989 0.384638 0.361813 0.437576 0.479656 -0.116681 0.096622 -0.221718 0.014371 0.055713 0.129547 0.563851 -0.382569 -0.429796 0.161896 0.114953 -0.076286 -0.553271 -0.275611 -0.245468 0.096794 0.034366 -0.435493 -0.333481 -0.360124 0.215073 -0.021364 0.188638 0.747089 -0.357281 -0.358736 -0.277078 0.849214 0.711806 0.226804 0.133793 -0.267379 -0.055433 0.157038 -0.431509 -0.222902 -0.688224 -0.086947 -0.591935 -0.173432 -0.654828 0.486072 0.792984 0.545163 -0.094169 0.016708 0.158121 -0.033708 -0.126660 -0.340215 0.121228 -0.347521 -0.333369 -0.274437 -0.501818 0.259600 -0.349720 0.182458 0.257303 -0.246400 -0.847760 0.188424 0.322332 -0.172921 0.358515 -0.005760 -0.259385 0.193631 0.018053 -0.108563 0.568698 -0.216031 0.287177 0.509098 0.463264 0.092391 -0.430559 
Service -0.128280 -0.411209 0.244127 -0.402754 0.199357 0.185961 0.469811 0.277409 -0.286830 -0.076814 -0.318399 0.567325 -0.262230 -0.326397 -0.140186 -0.143026 0.184763 0.206346 0.050028 0.621901 0.343480 -0.181757 0.433535 -0.435852 0.020440 -0.166066 -0.325684 0.431023 -0.119879 0.306728 0.282637 -0.207278 -0.307812 0.240213 0.273643 0.401193 0.048730 -0.670033 0.334099 -0.183686 -0.174237 0.036728 -0.358064 -0.620635 -0.595029 0.419945 0.573762 0.207257 -0.136453 -0.668024 0.261096 0.036496 0.400187 0.466833 -0.327239 0.546247 0.102746 0.101591 -0.117757 -0.520388 0.029808 -0.650681 -0.392603 -0.805838 0.204508 0.414026 0.012749 -0.049516 0.230776 -0.273644 -0.112218 -0.202445 -0.044510 0.149588 -0.367658 -0.298555 -0.240981 0.077085 -0.745860 -0.176447 0.257083 0.038532 0.563100 -0.330866 0.264641 0.125619 -0.140595 -0.285062 0.158516 -0.078921 0.454969 0.260843 0.619576 0.289556 -0.053041 0.077838 0.059305 0.443280 0.304103 -0.116419 
medical 0.849946 -0.027376 0.380114 0.061280 -0.545923 -0.034154 -0.277131 -0.138270 0.204039 0.047460 0.727438 0.688059 -0.923109 -0.236755 -0.075036 0.136969 0.392700 0.743964 -0.022268 -0.246764 0.262042 0.805825 0.520986 0.322172 -0.088535 -0.110601 0.222592 0.548840 0.259113 0.430195 -0.266756 -0.166586 0.416250 0.382073 0.035338 -0.134929 0.027212 -0.589688 0.026990 -0.631373 -0.090982 -0.111167 -0.154917 -0.094945 -0.170085 0.030465 0.672846 -0.414767 -0.745350 -1.194177 -0.160243 0.196622 0.006914 0.195029 -0.127890 -0.261514 0.143001 -0.599298 0.289843 -0.915804 0.066000 -0.136859 -0.661956 -0.333294 0.485932 0.704759 0.038933 0.028436 0.493947 -0.444728 -0.353328 0.901176 -0.471883 -0.258137 -0.282106 -0.233759 -0.070784 -0.154452 -0.087289 0.065855 0.473324 -0.256698 0.000537 0.007662 -0.207656 0.233267 -0.226504 0.578642 0.259625 -0.046031 0.170164 -0.333835 -0.237136 -0.234868 -0.399765 -0.241947 0.669664 0.374441 -0.561655 -1.117870 
aide 0.562879 -0.039675 0.063313 0.102312 -0.335925 0.107090 -0.359981 -0.035059 0.201228 0.032367 0.517777 0.445141 -0.655958 -0.247352 0.058366 0.074511 0.282279 0.486882 -0.006969 -0.247453 0.122394 0.600829 0.320378 0.275613 -0.135222 -0.051947 0.218706 0.290301 0.233425 0.229663 -0.120465 -0.044582 0.343497 0.245455 -0.070366 -0.089478 0.055277 -0.411398 0.006403 -0.349369 0.027333 0.078483 0.048266 -0.131030 -0.147352 0.037162 0.291086 -0.222669 -0.564812 -0.717690 -0.197332 0.017484 -0.078745 0.024466 0.005908 -0.158597 0.157251 -0.384855 0.236209 -0.581994 -0.018652 -0.028544 -0.370737 0.001942 0.232486 0.296328 -0.121975 0.007571 0.291194 -0.245077 -0.151303 0.594233 -0.263689 -0.222518 -0.158160 -0.059274 0.045254 0.130155 -0.068782 0.121680 0.401541 -0.257771 -0.031618 0.192539 -0.158178 0.077603 -0.165125 0.427063 0.156277 -0.031458 0.164992 -0.210898 -0.168792 -0.305516 -0.251840 -0.244769 0.340692 0.273553 -0.435374 -0.734590 
professor 0.423259 -0.156553 0.181846 0.014713 -0.182838 0.016996 -0.116584 -0.032964 0.081310 0.007667 0.395311 0.443743 -0.607629 -0.200976 -0.105065 0.077394 0.224369 0.386669 0.038886 -0.021577 0.233129 0.493450 0.411323 0.077370 -0.079758 -0.109369 0.057691 0.337493 0.069197 0.369082 -0.108557 -0.111961 0.222941 0.232449 0.052530 -0.057256 -0.007214 -0.501078 0.001329 -0.319506 -0.074045 -0.059269 -0.054197 -0.190574 -0.232790 0.212671 0.411526 -0.173509 -0.483288 -0.727296 0.083521 0.104067 0.065187 0.199682 -0.037276 -0.001597 0.145863 -0.367572 0.066351 -0.652318 -0.018074 -0.280460 -0.464178 -0.297714 0.344087 0.464695 0.012236 0.011854 0.295911 -0.280974 -0.240107 0.430051 -0.326004 -0.117975 -0.205272 -0.157100 -0.071454 0.040517 -0.131005 0.029362 0.433804 -0.140665 0.060801 -0.046060 -0.002936 0.203778 -0.180823 0.355257 0.126556 -0.087352 0.197245 -0.089261 -0.038541 -0.066928 -0.266632 -0.182930 0.351694 0.355009 -0.301657 -0.645631 
member 0.385110 -0.152284 0.222241 -0.068189 -0.216606 0.053835 -0.045730 0.024197 0.046998 -0.030608 0.306905 0.517403 -0.579354 -0.203177 -0.074087 -0.021544 0.275001 0.393844 0.035281 0.036765 0.245661 0.364114 0.417194 0.066127 -0.018309 -0.116796 0.038292 0.390537 0.085233 0.368703 -0.076012 -0.124146 0.152923 0.246868 0.098426 0.039176 0.042724 -0.551473 0.116751 -0.325147 -0.106935 -0.034767 -0.148524 -0.262391 -0.278041 0.170147 0.447794 -0.148403 -0.460614 -0.799748 0.029014 0.104603 0.132173 0.229434 -0.145779 0.041151 0.142590 -0.266104 0.117340 -0.661618 0.039738 -0.281628 -0.464845 -0.384151 0.345230 0.483001 -0.007913 -0.010412 0.321244 -0.299152 -0.265837 0.386917 -0.227358 -0.129416 -0.264692 -0.196966 -0.056974 0.020701 -0.290302 0.024656 0.343900 -0.092885 0.189337 -0.049916 0.004028 0.145904 -0.151501 0.225370 0.165919 -0.079189 0.234967 -0.094491 0.082222 -0.045631 -0.233252 -0.152065 0.368496 0.364293 -0.203674 -0.609190 
Lake 0.003486 -0.589577 0.763696 -0.330159 0.230446 -0.299286 0.342562 0.021782 0.203054 0.284496 0.087369 0.595399 -0.709159 0.232508 -0.519874 0.539377 -0.095617 -0.201775 0.144857 0.597427 0.360774 0.406578 0.517565 -0.054671 0.126747 -0.365526 0.201804 -0.051953 0.194359 0.622455 -0.611619 -0.574937 0.150197 0.234171 -0.040666 -0.573901 -0.210405 -0.421128 0.276440 0.279515 -0.765487 -0.364533 -0.509471 0.030817 0.136725 0.024963 0.949667 -0.530897 -0.364686 -0.308356 0.766436 0.932712 0.408700 0.123420 -0.567779 0.026432 0.497451 -0.348599 -0.115018 -0.802349 -0.093947 -0.594688 -0.189241 -0.986791 0.533677 0.871341 0.686234 -0.230118 0.170971 0.095995 -0.146832 -0.386836 -0.129893 0.157806 -0.579227 -0.562877 -0.410340 -0.484562 0.163944 -0.341593 -0.045568 0.309656 -0.177440 -0.847780 0.167213 0.308159 -0.120708 0.351337 0.268840 -0.212498 0.229333 -0.121732 0.081779 0.560767 -0.341085 0.117910 0.967722 0.689277 0.019480 -0.446844 
